521 64
379 0.7755748 0.7477119 -0.4612029 -0.20315874 -0.25223592 0.4069014 -0.12773664 0.6614574 -0.24669819 -0.0072211577 0.08483253 -0.5124774 -0.33409864 -0.6260456 0.5702353 0.15885335 -0.45033732 -0.0654358 0.54567325 0.049136695 -0.312849 -0.44111872 0.20034431 0.062273107 0.2628716 -0.16886616 0.25960746 -0.42763752 -0.0039321785 -0.03284962 -0.7002224 0.38336053 0.620924 -0.099639356 1.0520786 0.1267086 -0.24962197 -0.10751133 0.08394146 -0.15509462 -0.47313243 -0.6359123 0.1776632 -0.11392581 -0.007139422 -0.54884154 0.75996876 -0.3567245 0.26344395 0.39619938 0.060030296 0.27638802 0.37733895 -0.5467657 -0.46547145 -0.0094453115 -0.10684297 -0.5139593 -0.37142858 0.15678173 0.23889463 -0.111494355 0.7559627 0.032431018
39 0.8571084 -0.20918337 0.10452497 -0.105441764 0.52860403 0.16770646 -0.26215523 0.31886792 -0.29756975 0.33032528 -0.29611498 -0.14197472 -1.0006143 -0.08969057 0.12281578 1.1298089 -0.4474877 0.07701282 0.20827237 0.3942527 0.44732204 -0.6843316 -0.28757864 0.38578394 0.19052248 0.38759163 0.65505534 -0.2571299 0.0054192846 -0.0038181478 -0.04346934 0.027205773 0.69575757 0.2545331 0.26452383 0.22477025 0.3343146 -0.40638548 -0.25408095 -0.43339175 0.23405506 -0.037771903 -0.097466536 -0.22129266 0.5001502 -0.04502364 0.20105039 0.036506638 -0.28811684 -0.024472347 0.64228386 0.40750024 -0.45665193 -0.25305763 0.36094204 -0.6891948 -0.2926773 -0.24445388 -0.3839293 -0.16398524 0.17355625 -0.42439267 0.06453636 0.51163447
79 0.8269265 0.10396306 0.18124636 -0.5033682 -0.114085056 -0.59326446 -0.4688162 0.34066066 -0.24705584 0.28644806 -0.16672908 -0.16352198 -0.15334317 0.053044993 -0.21620888 1.0134064 -0.08658373 0.094598845 0.5393498 0.47002307 0.10562061 -0.71061456 -0.7563446 0.02858919 -0.5802832 0.5427125 0.816198 -0.40337595 0.16997775 0.20945248 -0.18158641 -0.07472054 0.6130662 0.33361572 0.38012642 -0.28654146 -0.35667375 0.4948872 -0.51266986 0.17779207 -0.11497327 0.63024944 -1.0042111 0.190855 0.44350636 -0.19055039 -0.1355853 0.51596624 -0.520682 1.2698684 0.2798035 0.603696 0.39614767 0.34470272 0.35789746 -0.59355 -0.28511432 0.29346013 0.07739443 -0.10089231 0.55164903 -0.21832418 0.31277275 0.21804702
35 0.54682165 -0.47213495 -0.3208059 -0.42835456 0.0055940165 0.13110533 0.018954389 0.30601838 -0.1861572 -0.042994257 -0.38090405 0.29497913 0.49650025 -0.46199283 0.48657852 0.61963075 0.19152899 -0.5862609 0.025750378 0.54319614 -0.3013153 -0.68254447 -0.09623937 -0.27180374 -0.060055636 -0.415424 0.13544096 -0.23893487 -0.02002837 0.5463913 -0.52351826 0.78860754 0.90754616 0.26815155 0.40275916 0.5783772 -0.1917149 -0.070236765 -0.15218285 -0.8763694 -0.16967872 -0.20116031 -0.45565674 -0.25093046 -0.17920811 -0.23167045 0.5292771 -0.3134976 -0.025357231 0.021521715 -0.44054097 0.55006355 0.1021138 0.09680095 -0.77316725 -0.29195073 -0.17658208 0.5161552 -0.112808764 0.09679726 0.2771908 -0.56912977 1.1993974 0.7988273
146 0.7221645 -0.43535712 0.4467119 -0.07239506 0.5532968 -0.3343814 -0.42017895 0.33873802 -0.5179936 0.3714618 -0.68957746 -0.20468532 -0.6810087 0.4265934 -0.15539175 0.7026655 -0.61290324 0.25012317 0.24765824 0.32047933 0.046191987 -0.5660802 -0.654642 -0.18993415 0.59097844 0.33768925 0.52782613 -0.30317292 -0.0889067 0.04230637 0.040056974 -0.025726091 0.9343372 0.643828 0.5978021 0.11585016 -0.008977693 0.07112728 -0.1649803 0.111598544 0.16041793 -0.06677045 -1.0314236 0.1626277 0.40997308 -0.15314294 0.25722325 0.195993 -0.37057224 0.74096113 0.38520193 0.13307057 0.08180738 -0.01603325 0.26453695 -0.73683345 -0.13190436 -0.050072554 -0.17520614 -0.12693353 0.5496285 -0.2929396 -0.08427378 0.10137119
436 1.0242997 -0.12750891 0.033140082 0.30884945 0.061758745 0.6320391 -0.12682882 0.29609743 0.0055359798 -0.32270947 0.12963271 -0.6905196 -1.216519 0.08997527 0.21300624 0.6226102 -0.114826426 0.30675998 0.2474586 0.07503915 -0.68825704 -0.5090791 -0.09510501 0.6273861 0.42765185 -0.85843915 0.82704437 -0.1334555 -0.019294081 0.20036763 -0.17710583 0.20936106 0.5655418 0.3468149 0.81155634 -0.09348763 0.31868118 -0.32211265 -0.23900189 -0.18058437 0.06371653 0.40875703 0.11130488 0.15090366 0.99194247 -0.6190598 0.10095024 -0.0655455 0.039246287 0.10948182 0.30549952 0.41349474 -0.46187714 -0.15357131 0.022934353 -0.2523344 0.1147154 -0.44391128 0.05330051 -0.015148767 0.6266032 0.025702765 0.4664269 0.17683066
251 1.2804959 -0.15948378 0.21436381 0.18576005 0.39463294 0.038495798 -0.46796584 0.66677743 -0.02731351 0.4713422 -0.33823946 -0.4271238 -0.8732562 0.22878109 0.047044132 0.8297657 -0.41274095 0.005586434 0.4950486 -0.11566572 0.0078103472 -0.55151504 -0.23710005 0.2857592 0.24721982 0.18681905 0.44666085 -0.062095426 0.11037529 0.0753368 -0.40382951 -0.15074891 0.6998564 0.24004777 0.58862555 0.2673844 0.29560855 -0.86336136 -0.03216227 -0.35484216 0.30814126 -0.15527257 -0.12834327 -0.028588701 -0.080458224 -0.42557412 0.1289868 0.017887084 -0.3792932 -0.052129216 0.68503976 0.2918874 -0.41508332 0.030831877 0.38320875 -0.34966546 0.0077120643 -0.009063614 0.054989964 -0.26031387 0.40044528 -0.25213686 0.4629867 0.62147397
506 0.6425366 -0.4943407 0.0797625 0.02544113 0.5863323 -0.013167531 -0.07352985 0.0035082225 -0.29325256 0.4298088 -0.41574022 -0.45649132 -0.86587065 0.20032606 -0.26000574 0.9210278 -0.55445105 -0.028935296 0.14104861 0.37015024 0.3353376 -0.83800495 -0.06551043 0.105880745 0.31462172 0.39849588 0.5736837 -0.16026445 0.30195114 -0.21626988 0.017089123 0.014346884 0.7181371 0.6636627 0.569984 0.28208545 0.20350406 -0.26670462 -0.123129115 -0.07524662 0.18170719 0.10305428 -0.59157145 0.03989085 0.6385656 -0.03858356 0.12071241 -0.012662665 -0.016877294 0.48156717 0.5461653 0.40362364 -0.09652962 -0.042373817 0.59105116 -0.4854882 -0.17431052 -0.0027459646 -0.19300656 -0.08732194 0.5955242 -0.51157504 0.002705116 0.4198707
237 0.88428605 0.29244247 -0.2541903 0.18172081 -0.6971906 -0.36296266 0.23134308 0.6224663 0.09724942 0.25964472 0.19372725 -0.5332374 -0.17470305 -0.28927925 0.6743198 -0.31209102 -0.5988742 0.3773 0.00046666793 -0.21545249 0.43537736 -0.5458285 0.19613998 1.0206922 0.2079626 -0.3101852 0.2474288 -0.43232104 -0.12089278 -0.2117585 -0.17538068 -0.14859617 0.51068544 -0.07484774 0.91881484 -0.18204981 -0.014365662 -0.12405267 -0.2168341 0.07104031 -0.7575497 -0.27688608 -0.3610545 -0.03007927 0.23553982 0.3691867 0.31713787 0.21333738 -0.044997048 1.2789623 -0.17060314 0.09171581 0.16543657 -0.68290085 -0.63185865 0.463767 -0.49107754 0.5512637 -0.3310534 0.55815893 -0.053262725 0.046394568 0.415406 0.7296756
304 0.39710456 -0.62350607 -0.42456698 0.337167 0.052560534 -0.38757673 0.0028247302 0.032547127 0.07276063 0.86576587 -0.28688097 -0.33177376 0.28558373 -0.37785938 0.5150767 0.10774213 -0.2759908 -0.058327373 0.022006946 0.12186386 0.23858434 0.05498436 -0.4093167 0.2685142 0.054973662 0.3413004 0.8744695 -0.38785347 0.2491147 0.36834946 -0.294918 0.45982468 1.0879881 0.797376 0.3011327 -0.15543528 0.25202388 -0.3770525 0.27474484 -0.31436098 -0.20313315 0.38906118 -0.5245685 -0.3323157 0.74289614 0.5104515 0.04229361 0.3594671 -0.54154575 -0.08594258 -0.13787118 0.7909178 0.1632083 0.82274145 0.3680101 0.05665735 -0.2421267 -0.59878385 -0.25253054 0.44604412 -0.5941964 -0.6641822 0.14495242 0.8607975
407 0.4467226 0.5767958 0.3119835 -0.113973774 -0.51484585 0.17985219 0.623959 -0.31468236 0.14618506 0.11502527 -0.19947837 -0.34103954 -0.054977287 -0.5011608 0.089961424 1.0955713 -0.33358482 -0.18992281 -0.13858475 0.1952292 0.1579339 -0.29256454 -0.18616904 0.583926 0.29109243 -1.1314576 -0.3098252 -0.050527338 0.5624191 0.668099 -0.5277856 -0.18541838 1.214485 -0.066766605 0.48085076 -0.40253493 0.7895907 -0.4593133 -0.70225286 0.27219096 -0.31626865 1.0236164 -1.3210484 -0.15450482 0.19155978 0.31011146 0.016526511 0.7897949 -0.1531727 0.16619067 -0.2223914 0.32180223 0.4728506 0.024027834 -0.67997324 -0.56393975 0.040014964 -0.23056155 0.22754458 -0.1929705 -0.0604916 -0.12787005 0.13602312 0.4882625
134 0.86431456 0.49477378 0.16817889 -0.0077561676 -0.17147617 0.36873332 -0.23872866 0.58610535 0.15101331 0.3802833 -0.22866361 -0.52254385 -0.47592866 -0.03482228 0.2411356 0.59091014 -0.6515019 0.5387758 0.46550786 -0.05520825 -0.36006102 -0.12998231 0.11528028 0.47020075 0.020947156 -0.5988797 0.68989176 0.008304028 0.024691114 0.5288594 -0.3166195 0.04980532 0.97513896 0.06601142 0.94566053 0.32930043 -0.13590276 -0.26065946 -0.012836865 -0.09865629 -0.2692714 -0.06608295 0.17852981 -0.02311007 0.6796671 -0.7062992 0.19297808 -0.24795857 0.18707187 -0.20931844 0.31718984 0.4342305 -0.4921307 -0.13991122 0.036318842 -0.20653981 -0.20022123 -0.7295887 0.09138869 -0.105410405 0.749715 -0.34045458 0.7366306 -0.102993585
286 0.23045617 -0.35820597 0.5822096 -0.13385896 -0.86340606 0.5957441 0.33249047 0.1309314 -0.449089 -0.10548472 0.14367686 -0.035185605 -0.14289448 -0.29830083 0.7779283 0.13500471 -0.45804906 -0.7519574 -0.14015827 -0.070932046 -0.58281785 -1.0734746 -0.42794836 1.4315044 -0.0058340495 0.86378807 0.5973213 -0.050945275 -0.66706795 0.5598258 0.10086855 0.16667849 0.45019335 0.07349325 0.21054743 -0.11803676 0.32693028 -0.25961146 0.014068268 0.4306647 -0.97643936 0.42875823 -0.8006259 -0.25251627 -0.017419973 -0.122808956 0.68336105 0.090589724 0.013763164 0.09881375 -0.006898875 0.13458073 0.65528 0.47448045 0.057886947 -0.66271067 -0.6192324 -0.34686533 -0.36288437 -0.41373476 0.32034576 -0.2756618 0.65890616 0.2701039
376 0.5902965 -0.00804661 0.113831475 0.8408527 0.2664489 0.627939 -0.108231075 0.3380823 -0.31389844 0.6326676 0.26933974 -0.39868417 -0.045234166 -0.851539 0.31043845 -0.34215525 -0.16348638 -0.70942265 0.8199096 0.071953066 0.14185931 -0.07816862 -0.13536432 0.7981935 0.056836065 -0.22962657 0.7182805 -0.587513 -0.088515244 -0.2865118 -0.4569694 0.46063387 1.1095759 0.16052201 -0.028786737 -0.63416785 0.724971 0.19447055 0.2397288 -0.7342478 -0.09995606 0.3309234 -1.4435242 -0.2365921 0.64204997 0.46897522 0.30783188 0.14939368 -0.21129696 0.19703902 -0.74506974 0.3937864 0.17135298 0.8180282 -0.025225824 0.04010367 0.10659132 -0.3878369 0.15870991 0.5152903 -0.015247295 -0.32623982 -0.23729521 0.3857241
107 -0.10353416 -0.43456453 0.43697652 -0.12008616 -0.08466607 0.5539544 0.64284986 0.6946881 -0.3632031 0.062386826 -0.33875 0.40321788 -0.33120486 0.07671293 0.3159373 0.1360006 -0.5710947 -0.5132327 -0.4501918 0.33769277 0.18445553 -0.2985872 -0.3245072 0.37958965 0.49621937 0.07350844 0.45021972 -0.81625104 0.40999237 -0.23030296 -0.045334496 -0.39604145 0.96096283 -0.3100634 0.893001 0.6065767 -0.12800163 0.15683429 -0.30364078 0.056515213 0.18931581 0.04370993 -1.8902985 0.11750268 0.7130019 -0.40237635 -0.02644954 -0.07777189 -0.8400824 1.0363922 0.175852 0.15662368 -0.21141398 -0.099147536 -0.055669975 0.015054677 0.208791 -0.49053746 0.23648864 -0.13655646 0.48095664 0.0049493536 0.67990875 0.38693723
71 -0.7883186 -0.5401659 0.13790919 -0.010035037 -0.31748036 0.5309751 0.2287234 0.50946844 0.23569964 0.35234228 0.5682257 -0.89832497 -0.7446312 -0.047190253 0.5152741 0.348917 -0.35347497 -0.4640575 -0.27758297 0.3083537 -0.40675336 -1.0886166 -0.524102 1.0582817 -0.40560126 -0.037870675 -0.074148625 -0.16302939 -0.04754566 -0.15264314 -0.8155238 0.6807789 1.1864924 -0.007835284 0.15196238 -0.32082012 -0.68851924 -0.22154933 -0.062499356 0.6411231 -0.6068927 0.41927603 -0.90295327 0.027066873 0.28648683 -0.19309969 0.15786643 0.21832927 0.04489126 -0.03716675 -0.4243087 0.15751345 0.24243313 0.85647607 -0.26387843 -0.46554232 -0.92623824 -0.539268 -0.41343898 -0.35960644 0.29113752 -0.4165657 0.20920709 0.34502614
125 0.18619636 -0.1786889 0.21144237 -0.5145598 -0.9834049 -0.35077113 0.16786668 0.03735995 -0.3760981 0.2697235 -0.008831998 -0.25107872 -0.17565449 0.49443474 0.32954818 0.7326482 -0.9433042 -0.058981467 0.20545731 0.23673505 -0.17968245 -0.30498198 0.21277091 0.8846837 -0.45372975 -0.38986936 0.8173215 -0.20003675 0.08249102 -0.45675474 0.03367164 0.47163853 0.5415729 -0.44525763 0.25392887 -0.39168242 0.28225943 -0.8644887 -0.93234 -0.34069875 -0.62418187 -0.5562175 -1.0424154 0.17949915 0.42357478 0.010948715 0.96942395 -0.24794078 -0.44115767 0.83461946 -0.74276954 0.58466524 0.2776434 0.19220161 -0.0890593 0.2555625 -0.23490363 0.17119478 0.3101821 0.33242872 -0.39460325 -0.24849696 -0.056647297 0.8322499
378 -0.14233468 -0.09438355 0.19609658 0.26312077 -0.68023735 0.28207767 0.037089698 -0.022200758 0.20811118 -0.21564691 -0.71782404 -0.49888977 0.0054672416 -0.089265786 0.5437257 0.15481539 -0.50990725 0.12586206 0.59035695 -0.61402357 0.25356436 -0.94070405 -0.19358684 0.14512344 0.019158479 0.30957177 0.107490115 -0.39595148 0.18250911 0.006553609 -1.0006678 -0.21244031 0.7140707 -0.3310471 -0.45948035 -0.8873474 -0.16358995 -0.41702434 -0.73368347 -0.42635337 0.047122885 0.579633 -0.78678656 -0.19006962 0.70757914 -0.39681953 0.46800816 -0.07296116 0.094545625 0.8905348 0.20274329 0.27215716 0.0036713565 0.27684313 -0.017774118 -0.5842653 0.6621047 -0.45072824 -0.74230057 0.62309855 -0.3619576 0.07426763 0.9165661 0.4300037
462 -0.18094245 0.26671505 -0.151808 -0.06931891 -0.64299446 0.603181 0.24793883 0.24553786 0.0340087 -0.264647 -0.4846386 -0.6991093 -0.037123058 -0.5008283 0.34905025 -0.07593724 -0.6083583 0.24000035 0.10596403 -0.7961908 0.06607318 -0.85906476 0.3014645 -0.33370644 0.013461976 0.19489951 0.084476024 -0.48998034 0.40191066 -0.1654919 -0.2968814 -0.10125895 0.6037912 -0.3448512 0.16416715 -0.47653955 -0.5481808 0.033091225 -0.34787008 -0.5567195 -0.78802234 0.54136413 -0.5503475 -0.21382853 1.1324524 -0.3131423 0.9088101 0.22966976 -0.2137379 0.9027085 0.17711848 0.64575624 0.05569 0.2513597 -0.04754384 -0.5280887 0.3403706 -0.14459173 -1.1147367 0.35836747 -0.146919 -0.15940204 0.4879063 0.53253675
94 0.2841075 0.3928499 0.11275177 -0.11659219 -0.63782203 -0.5820784 0.56075287 0.53008735 -0.13067299 0.095631555 0.16605492 0.05578762 -0.13785061 0.41876644 0.5681066 0.6687031 -0.9624703 -0.28249288 0.32331488 0.2717884 0.1630646 -0.5815904 -0.08982863 0.86036986 -0.18866828 -0.060556434 0.9289468 -0.062391557 -0.08120377 -0.20254044 -0.17265509 0.33327726 0.7701453 0.15320894 0.26501742 -0.60471904 0.25284848 -0.7672599 -0.53191507 0.050259285 -0.6748507 -0.39210466 -0.65448844 0.34517297 0.74402034 0.03658411 0.9629113 -0.2525589 -0.2743923 1.0258101 -1.146737 0.22029865 -0.06440089 -0.27739298 -0.13040905 0.44687182 -0.21224864 0.45423076 0.27823743 -0.0025773416 -0.32634684 0.23053108 0.0016754505 0.5944353
257 -0.26530692 0.01948886 0.5306456 0.1410564 -0.031088337 0.28322643 0.62833863 -0.14022578 -0.05705743 -0.035165157 -0.73689765 -0.24870111 0.1879471 -0.18593936 -0.031711604 0.30874717 -0.11604113 -0.27292812 0.41063416 -0.37933075 -0.10204634 -0.80126363 0.115124725 0.22178155 -0.09620906 -0.062255293 -0.011335139 -0.34956843 0.42121732 0.26838335 -0.7322911 0.32116628 0.60530883 0.064948484 0.007314521 -0.7219753 -0.17916447 -0.22357258 -0.48910633 -0.41545087 -0.31234434 0.7771197 -0.8036987 -0.27623865 0.43584713 -0.40005457 0.8338581 -0.68276566 0.6390967 1.200566 0.41901693 0.572884 0.38394198 0.3499364 -0.5642403 -0.43444625 0.37221953 -0.39750546 -0.5740458 0.877978 -0.026240317 0.3688856 0.49181554 0.3110228
217 0.6764175 -0.32945055 -0.33699572 -0.3053415 -0.09393716 -0.14815667 0.75562143 0.3248913 -0.031850968 0.18023764 -0.16198072 0.30696815 -0.33503386 -0.3274819 0.3493124 0.8283214 -0.1511938 -0.61216724 0.24239174 0.16652322 -0.6341302 -1.018195 -0.1919781 -0.24708435 -0.13420524 -0.38840404 -0.14463294 0.0016602989 -0.12434519 -0.10930019 -0.44841513 0.5891081 0.4844448 0.8580326 0.22586636 0.4616242 -0.46296984 -0.45582625 0.090901084 -0.7141078 -0.35622 -0.18633616 -1.0026027 -0.17358136 0.029622374 -0.05747223 -0.095841505 -0.10101126 -0.7649559 -0.44052258 -0.6626031 0.061318494 0.08311972 0.401024 -0.07467121 -0.5186059 -0.44528398 0.23516105 -0.2475705 0.75642526 -0.31506974 0.15738575 1.046156 0.94670194
420 -0.24443826 0.1171716 0.21455841 0.014699837 0.004942939 0.52794814 0.6984209 -0.0074226237 -0.08719736 -0.22958893 -0.64663416 -0.11461645 -0.19078967 -0.5547035 0.2850574 0.4702071 -0.30581278 -0.17082599 0.33263493 -0.6569634 -0.07167224 -0.53714186 0.2860766 -0.2713013 -0.42750272 0.038212787 0.3079709 -0.6638449 0.14921995 0.37902653 -0.5064396 0.19539273 0.8513901 -0.14087848 0.026930349 -0.60196483 -0.53875244 -0.19806181 -0.10860986 -0.43792233 -0.52962697 0.60886115 -0.5842731 -0.35191947 0.58985114 -0.16926436 0.9143186 -0.70239824 0.38857707 1.0714399 0.48438463 0.5823983 0.6280416 0.31645623 -0.23608842 -0.3862466 0.22024684 -0.12811951 -0.4365949 0.5960944 -0.21754394 0.45113912 0.5032944 0.34863535
457 0.40606496 0.41871017 0.61091673 -0.049412895 -0.8967396 -0.74369955 0.5043455 0.24474826 -0.26936206 0.23265249 0.31705987 -0.15511481 -0.3484835 0.49154997 0.6641796 0.22003014 -1.0697836 -0.16981621 0.28072533 0.23002316 -0.09612805 -0.25446904 -0.08979412 0.9958807 -0.4639286 -0.5436137 0.46688527 0.013717785 -0.120087676 -0.24348275 -0.49449453 0.36733443 0.6496243 0.33986208 0.37997526 -0.44772276 -0.09398519 -0.52947485 -0.372353 0.022061227 -0.6580794 -0.5036957 -0.7980562 0.31387618 0.766619 -0.063008815 0.8111089 -0.029438717 0.0015734835 0.9574544 -0.72281057 0.34655204 -0.31413764 -0.42269474 0.14478372 0.16842638 -0.03926436 0.41825917 0.16392386 0.08549188 -0.7774406 0.061898768 0.06456854 0.7812608
201 -0.11412614 -0.045996506 0.531106 0.40226355 -0.32780963 0.24997728 0.9487938 -0.05736904 -0.15134177 0.55350727 -0.6763119 -0.1800034 -0.24326813 -0.40966842 0.11261945 0.67731637 -0.41975778 0.12912616 0.6273007 0.42125577 -0.32370323 -0.32467058 0.078584835 0.81136435 0.32848927 -0.2690081 -0.124097824 -0.25608018 0.42904854 0.83174884 -0.61513364 -0.2326043 0.7505061 0.18892671 -0.26909372 -0.5699655 -0.0050270017 -0.26180455 -0.94696295 0.075840764 0.24070226 1.1799634 -0.9066931 -0.21304339 0.41754246 -0.025938625 0.5565608 -0.21788523 -0.14218211 0.17046316 -0.018395018 0.15142614 0.7214777 -0.2166923 -0.5555785 -0.47600725 0.48022616 0.20650335 -0.12299451 0.13261722 -0.1918053 0.35602322 0.4679142 0.7876455
2 -0.26347682 -0.22262055 0.34924194 0.46308637 -0.15549372 0.42695197 0.8072162 -0.28541473 0.021164369 0.1315731 -0.7442285 -0.45801178 0.18202984 -0.2181094 0.2534184 0.4716103 -0.3723265 0.33801663 0.8082651 -0.010753007 -0.04217774 -0.5752473 0.16507387 0.43299818 0.13601162 -0.14942493 0.082192615 0.029438715 0.09051906 0.4051693 -0.3497065 -0.27300438 0.70269454 0.17227006 -0.20336233 -0.76823527 -0.19894157 -0.40194726 -0.7484414 -0.25795278 0.39399588 1.0130231 -0.87168217 -0.0423716 0.5043016 -0.1987253 0.96001035 -0.33375436 0.17704289 0.77658576 0.287636 0.07808926 0.821869 0.053609945 -0.6285216 -0.3336929 0.21560386 0.11013024 -0.24426499 0.5582835 0.07320526 0.24774373 0.6881595 0.71547705
285 0.09506148 -0.22439824 0.47965822 0.54848707 -0.36953723 0.124291554 1.0805727 -0.18791938 -0.19035724 0.07152233 -1.4031701 -0.25474414 0.13678947 -0.5205555 0.2964636 0.46077275 -0.3502279 0.13653445 0.68387514 0.19212177 -0.06202261 -0.29247764 0.14349653 0.7739263 -0.14162411 -0.22439836 0.07686562 0.023324111 0.25488633 0.63424337 -0.6974363 0.012544003 0.7177258 0.41331235 -0.2232659 -0.43204108 -0.14448273 -0.41880575 -0.73550415 0.17210256 0.14049138 0.7380026 -0.95974815 0.09787383 0.28076172 0.11162566 0.76369494 -0.5281632 -0.034345582 0.28888178 0.03884428 0.105205625 0.6871757 -0.04569907 -0.60027885 -0.60816854 0.4684399 0.19408293 -0.2869794 0.2316932 0.09618119 0.23226906 0.5757746 0.52961326
265 0.869232 0.27555725 0.6090278 0.40921307 -0.11111211 0.21476647 -0.37524307 0.15727049 -0.2625894 0.31489447 0.33503395 -0.08889778 -0.22816478 -0.2111232 0.76334274 0.15424627 -0.48130584 0.021450998 0.70791364 0.36418578 -0.38620389 -0.34862515 -0.006446932 0.7266015 -0.4544568 -0.84590447 0.567475 0.005871724 0.6551696 -0.051424332 -0.20016836 -0.01977545 0.6845623 0.036319964 1.0198531 -0.3014552 -0.02980268 -0.60808635 -0.80552614 0.3525297 -0.4528289 0.04228391 -0.12083993 -0.25997227 0.7745992 -1.2028608 0.65846086 0.07252693 0.3088391 0.19556959 -0.17022559 0.22042477 -0.33117032 -0.13784242 0.26345813 0.2996695 -0.46214592 -0.2868832 0.17349528 -0.10172288 -0.40061757 0.37640268 0.6099349 -0.027218003
255 1.083157 0.21177337 0.31137076 -0.25179464 -1.1096565 -0.3157072 0.07298987 0.5089095 0.37141722 0.606143 0.21572699 -0.74905884 0.0062149647 -0.034946337 0.743337 -0.2469913 -0.39524546 -0.09904882 0.062360704 0.26786873 0.19290127 -0.13785431 -0.23460315 1.086452 0.07427491 -0.28900668 0.3467896 -0.28005525 -0.057785068 0.08384344 -0.66559577 0.047590546 0.46604043 0.017895233 0.753894 -0.3773132 -0.17356138 -0.052571364 -0.06280624 0.2664449 -0.82412857 -0.21497461 -0.7090357 -0.25135916 0.14559095 -0.37707758 0.49447033 0.023480393 -0.4240552 0.77396387 -0.33647758 0.09933793 -0.0850228 -1.2181448 -0.28455424 0.17559806 -0.33538115 0.084100656 -0.31695974 0.6919837 -0.3007705 0.33936962 -0.020791039 0.42581135
472 0.49350122 -0.4558525 -0.2826997 -0.3985022 -0.092242524 -0.090457276 0.14443155 0.5864005 0.1602062 0.15078 -0.5379704 0.3403661 -0.02612164 -0.25997177 0.34345275 0.7570364 -0.081368126 -0.4004509 0.13126545 0.21141784 -0.2319891 -1.0172926 0.107629314 -0.49406964 0.18260875 -0.22526781 0.12160867 -0.17039791 -0.28342184 -0.24625507 -0.42500085 0.93493015 0.6593922 0.56387675 0.59227496 0.81164587 -0.034545913 -0.42740336 -0.16092448 -0.9143446 0.020556564 -0.013017997 -0.41111615 -0.15245509 0.21453533 -0.090246715 0.19891359 -0.057492934 -0.42393047 -0.46718726 -0.37027842 -0.031266958 0.18962836 0.38215908 -0.42772287 -0.5035429 -0.70081365 -0.06586536 0.1417255 0.5071961 -0.294306 -0.18620749 0.95463955 1.11245
3 -0.10564711 -0.50545514 -0.05249109 0.32381144 0.026987236 0.04439804 0.19299458 0.3335357 0.3070376 0.9269069 -0.27098855 -0.33465028 -0.06395743 -0.53853023 0.5109487 -0.21695851 0.2160305 -0.39027765 0.112193085 0.13101129 -0.189611 0.21541715 -0.28122896 0.76783156 0.10974903 0.06417574 0.6431804 -0.24518526 -0.14702296 -0.13170378 -0.3084032 0.35289773 1.7563652 0.40227717 0.18437497 -0.42404085 0.3689347 -0.22792724 0.124103926 -0.20740944 -0.4594277 0.43295866 -0.66920656 -0.35540792 0.73789364 -0.009399085 -0.01142646 0.4001864 -0.5943983 -0.16466677 -0.48492298 0.32990208 0.02195502 0.89968497 0.33799353 0.3030111 -0.26798576 -0.43396288 -0.63779247 1.0363852 -0.3121159 -0.72764224 0.059239402 0.6082112
51 0.62677073 -0.83437264 -0.3849788 -0.4276564 -0.21801102 0.16771029 0.471971 0.0022278419 -0.117231935 -0.026485402 -0.4138705 -0.14727801 0.13512653 -0.89827317 0.6165187 0.6170554 0.104618214 -0.68618214 0.51447684 0.68090767 -0.4070967 -0.54767054 -0.51384604 -0.39218053 -0.39326188 -0.27422613 0.23732965 -0.061949436 -0.17867126 0.29570407 -0.25451186 0.54370797 0.5627985 0.4161723 0.11490692 0.4557672 -0.5696598 -0.11125155 -0.36787495 -0.92365456 -0.32015148 -0.044896267 -0.72110057 -0.15533559 -0.036243245 -0.32377294 0.55925345 -0.1801875 -0.1213668 -0.04664657 -0.3239525 0.13429232 0.03171105 0.035064567 -1.0578228 -0.5218365 -0.0066851843 0.3467958 -0.11836556 0.34345344 -0.05068267 0.24864766 0.83948827 0.71272546
109 0.1626222 -0.6544552 -0.16721857 0.21648231 0.16144153 -0.17826651 -0.1763937 0.08944543 -0.019694708 0.7167652 -0.20633686 -0.095390074 -0.10470622 -0.12551463 0.60621333 0.02027503 0.101408295 -0.54209685 0.013178741 0.3922637 -0.21815066 0.0066998196 -0.3234102 0.24218029 0.3772637 -0.06850984 0.74877 -0.5982317 0.23316495 0.24556084 -0.1547576 0.025306342 1.1002613 0.6584204 0.33637902 -0.2782629 -0.09461535 -0.2526696 -0.018817404 -0.3237949 -0.38347298 0.7459959 -0.41766152 -0.2852533 0.8430029 0.3663807 0.14735547 0.45686775 -0.84874076 -0.2183664 -0.4493696 0.26961178 0.026412051 0.8556127 0.35411978 0.23884232 -0.30165952 -0.4739417 -0.53062415 1.0091536 -0.7793658 -0.35728097 0.49618113 1.2090704
262 0.23309052 -0.30205643 -0.14588837 -0.13673513 -0.121399395 0.41350967 0.46700135 0.22777773 -0.15968482 0.29679942 -0.46673808 -0.19852151 0.18466064 -1.212616 -0.06475007 0.026743272 0.0893586 -0.724882 0.51959336 0.35352108 0.06805557 -0.79721665 -0.08721289 -0.05630503 -0.3208869 -0.23203202 0.07970813 -0.563267 -0.04563546 0.7824555 -0.58800936 0.088064745 0.80282634 -0.17524771 0.5034866 0.35189012 -0.55619746 -0.017856197 -0.48128998 -0.7147262 -0.52692306 -0.32784352 -0.11119994 -0.20219816 0.09189256 -0.80357987 0.5967609 -0.6696117 0.36815527 0.824781 0.00733752 0.28195813 0.35475826 0.37345764 -0.45234072 -0.003391549 -0.110565916 0.5762747 -0.31940866 0.4488035 0.14656998 0.12547506 0.8758498 0.3574434
64 0.5601635 0.5365563 -0.37299213 0.29582256 -0.844389 0.092717454 -0.03461171 0.68151873 -0.17564325 -0.26577199 -0.034248542 -0.43119872 -0.39805043 -0.8151786 0.32547078 -0.26585495 -0.6745173 0.47605085 -0.22222595 -0.5549162 0.34065846 -0.51006967 0.19068345 -0.40485442 0.41916394 -0.18990614 -0.034296546 -0.621062 0.19371249 0.14937654 -0.65868104 0.5836295 0.46066377 -0.22682892 0.30114844 -0.5113137 -0.50453 0.029176096 0.13447079 0.07167628 -0.68737197 -0.111347035 -0.46739885 -0.22084816 0.55291337 -0.19555774 1.0273823 0.12815112 0.032170784 0.8966867 0.046211652 0.9520051 0.47959325 0.07997034 -0.5706681 0.07462547 0.13170245 -0.06805885 -0.72592336 0.44489616 0.45837393 -0.46877122 0.679847 0.39066267
259 0.18752317 -0.29637706 -0.2300472 -0.23831457 -0.11919723 0.47160885 0.55309373 0.082855105 -0.1168124 0.17386915 -0.88161355 -0.20376079 0.09791666 -0.8175338 0.09745311 -0.119785585 0.020607395 -0.78088075 0.64319706 0.24473508 -0.2672935 -0.34402132 -0.3482864 -0.18022235 -0.44989082 -0.20104818 0.14863922 -0.45643112 0.05348153 0.63396734 -0.42391932 -0.17928426 0.77994984 -0.052517425 0.38329926 0.3085049 -0.84965205 -0.1834858 -0.46364465 -0.49179628 -0.40100667 0.1361472 -0.4228766 0.2258691 -0.19813041 -0.5041012 0.8505391 -0.68691397 0.4963223 0.54922557 -0.32956287 0.6193112 0.26081666 0.20058294 -0.5624371 -0.5963982 -0.19599687 0.39490306 -0.39148006 0.39834177 0.09438302 0.3873471 0.66080964 0.74690604
121 0.08245193 -0.19644797 0.24659473 -0.35450378 -0.2685491 0.59662557 0.6576879 0.080698974 0.026205389 0.15523617 -0.88639027 0.031327017 0.34363982 -0.8237185 -0.018444475 0.019146932 -0.29768795 -0.24609189 1.0350924 0.5635994 -0.3076663 0.045170322 -0.28355363 0.4234292 -0.566793 -0.3746615 0.027594158 -0.49933353 -0.006109461 0.5798319 -0.42599916 0.03088795 0.75908786 0.55751526 0.11493635 0.5292319 -0.6710164 -0.6038476 -1.0229124 -0.55967 -0.046344712 0.71016085 -0.51802963 -0.098674364 0.07795286 -0.266238 0.6310275 -0.7941185 -0.21490052 0.5424077 -0.26179233 -0.036442064 0.30275157 0.25762674 -0.8437352 -0.66943955 -0.29321724 0.33825713 -0.026485268 0.24595377 0.24104333 0.06698987 0.51564 0.619939
438 0.1896552 -0.15623404 0.09853077 -0.14773206 -0.10449132 0.8798476 0.46399924 0.06525144 0.10442236 -0.5068499 -0.67831534 0.09349439 -0.02502893 -0.656939 -0.3037207 0.027633848 0.106028214 -0.4957612 0.36904827 0.07682248 -0.172866 -0.8464788 0.06779617 0.19429202 -0.12787367 0.024774125 0.32852829 -0.43409938 0.3050583 0.122577004 -0.7268745 -0.041092046 0.9346839 0.20221563 -0.08445809 -0.0038947533 -0.6833758 -0.32920206 -0.19559547 -0.684954 -0.2933737 0.29422486 -0.22583038 -0.024914432 0.26031268 -0.50564224 1.233206 -0.43151772 0.43416554 1.0784291 -0.110666424 0.44304022 0.38279587 0.580997 -0.3446732 -0.69013757 0.36400038 0.41829747 -0.20273751 0.7886981 -0.12168433 0.4454184 0.49658874 0.5092668
359 0.0020263544 -0.44804206 0.9412707 -0.5059674 0.015507124 -0.029227218 0.12072971 0.15689151 -0.15443133 -0.5092139 -0.095402226 -0.5340539 -0.8697919 -0.14253297 -0.17878681 0.09391943 -0.5481893 -0.4062984 0.22365797 0.058553796 -0.5090244 -0.1023531 -0.5651961 -0.13330606 0.3043733 0.57761365 0.19498555 -0.48792297 -0.11816785 -0.4181035 -0.22381467 -0.2795455 1.3650868 0.2571085 1.0650034 0.15553899 0.48773643 -0.007971931 -0.7797906 0.08630466 -0.75894296 0.18017682 -1.1875863 -0.04289608 1.1710285 0.26492321 0.3798245 -0.1311165 -0.7368995 0.36407363 0.09291272 0.31796077 -0.30915052 -0.11412221 -0.31788692 -0.3998647 0.066657126 -0.08513354 0.3260708 0.15560183 1.2331452 0.4345423 0.172091 0.52297616
150 1.0091157 -0.11434945 0.472042 -0.34716693 0.36779958 -0.6451258 -0.41594476 0.17985877 -0.3067102 0.2102989 -0.30898702 -0.29085734 -0.35070497 0.21289596 0.041087702 1.0134279 -0.2208714 0.115176976 0.3506382 0.07545278 0.030673767 -0.42404184 -0.4855903 -0.21893366 0.042381093 0.5359102 0.7989169 -0.10140089 0.25229445 0.07641821 -0.17360693 -0.08176166 0.50343436 0.42535746 0.55683774 -0.042266417 -0.30691984 0.18724568 -0.31654826 0.13233306 -0.07808469 0.28828886 -1.2346022 0.01603167 0.5987934 -0.11996508 -0.00026605476 0.10582185 -0.33639374 1.2202456 0.5001397 0.35228363 0.33653077 0.20633362 0.30843812 -1.047637 -0.5398795 0.18092097 0.21056952 -0.10932894 0.26578933 -0.3538847 0.08885583 0.08026371
362 0.63649154 -0.27979916 -0.0822718 -0.14561927 0.31188673 -0.3372542 0.15231855 0.04730048 -0.16598874 0.57217515 -0.16645484 -0.35902688 0.083048694 0.014597683 0.28965533 0.17802049 -0.10038271 -0.5479176 0.08898939 0.09863597 0.45878997 -0.34479758 -0.55681884 0.07656278 0.18017107 0.3041663 0.4933307 -0.1525336 -0.066132195 0.33742186 -0.2675701 0.09169792 1.0765086 1.0744343 0.3765346 0.013831974 0.005300335 -0.5799237 0.030156823 -0.00818719 0.16690058 0.64560056 -0.522356 -0.025661653 0.8302733 0.29681373 0.18105064 -0.1671951 -0.47466618 0.35626435 0.202384 0.9813816 -0.050929375 0.27714306 0.4150451 0.37094593 -0.17011285 -0.8423154 -0.39498532 0.12948488 -0.3547894 -0.83841676 -0.36641532 0.9837198
215 0.25544587 -0.59209377 0.64633924 -0.2050834 0.26144564 0.0070310934 -0.2709528 -0.18229072 -0.009320609 -0.5542263 -0.24252346 -0.59742004 -1.2304946 -0.088409886 -0.17384964 -0.14262798 -0.41145232 -0.18238923 0.16597232 0.01750417 -0.32706934 -0.02602359 -0.7812401 -0.093461126 0.03654849 0.24934435 0.42316616 -0.76365477 -0.17519093 -0.1693894 -0.3885176 -0.40042228 1.1402954 0.21644524 0.8382233 -0.11519212 0.7378189 -0.17526115 -0.778495 0.09459361 -0.725661 0.16224107 -1.061214 0.5162188 1.1436536 0.12678885 0.33533716 -0.6199484 -0.5757078 0.42862818 -0.21991551 0.3478999 -0.22464813 0.039916184 -0.27413213 -0.5918262 -0.032616574 -0.09988211 0.39510512 -0.06299535 1.1759411 0.44340327 0.48457253 0.5433312
12 0.5041399 0.033165134 -0.045844726 -0.07227434 -0.21782339 0.4234343 0.16485842 0.111243725 -0.63575983 0.104859404 -0.09056862 -0.48859563 0.031391602 -1.0594217 -0.00037671684 0.253999 -0.116207466 -0.56280965 0.75510204 0.17203957 -0.029505847 -0.14518544 -0.031420905 -0.1722606 0.12107105 -0.35136914 -0.13316321 -0.65362185 0.02764628 0.53908026 -0.5815456 0.041200142 0.88428116 -0.37843302 0.383821 0.42699784 -0.5776137 -0.2316755 0.1558423 -0.5945044 -0.8052414 -0.39060807 0.256767 -0.20897676 0.14446507 -0.8151935 0.65271086 -0.36084792 0.4436574 0.66460013 -0.17208919 0.121774375 0.3508381 0.25362158 -0.75706655 -0.230157 -0.3866592 0.33678645 -0.28803316 0.48517478 0.2728327 -0.2285439 0.9301264 0.64230996
198 0.9005586 0.59949076 0.43773112 0.36334392 -0.36172983 0.29503444 -0.13537315 0.3893026 0.16014014 0.11924822 0.5110782 -0.25489685 -0.41582054 -0.122824855 0.79379046 -0.15073493 -0.32624146 0.17332047 0.9123652 0.25021943 0.0019021143 0.021681415 -0.19999541 0.6228835 -0.25499904 -0.76085186 0.71647006 -0.12248454 0.5670069 0.119995415 -0.242807 0.06310131 0.5939862 -0.025268417 0.75214326 -0.15344757 -0.19784929 -0.49441388 -0.43470994 0.039256077 -0.3828548 -0.08239534 -0.40101546 -0.31338337 0.49865994 -1.0211462 0.41839102 0.11992648 0.1615975 0.24902666 0.29930094 0.5487458 0.07539536 -0.41071677 -0.15186103 0.3260471 -0.92285573 -0.56460404 0.11311835 0.08893086 -0.12599845 0.36527306 0.80266684 -0.23586191
141 0.90264356 -0.4214262 -0.3655342 -0.4224961 0.023471741 0.34718955 -0.126069 0.3123469 0.16074662 0.699959 -0.33538714 0.16791014 -0.3162354 -0.07369251 0.5452432 0.81774193 -0.35861912 -0.35600582 -0.14897007 0.3570575 -0.28889376 -0.8610899 -0.1777037 -0.37808913 0.26061022 -0.11311945 0.01732765 -0.32911873 -0.31998938 0.051565144 -0.4372579 0.6365431 0.6219995 0.5304742 0.41424322 0.71057695 0.060406692 -0.45037848 0.001956687 -0.98374933 0.09287577 0.018085198 -0.1657724 -0.22288385 0.21201079 -0.30123422 -0.16859645 -0.33470917 -0.13522331 -0.33295313 -0.10919733 0.35201085 0.04697722 0.13535045 -0.46236768 -0.38957334 -0.28189883 0.2558491 0.011591037 0.12874678 -0.31995448 -0.48729977 0.5504794 1.102654
296 0.681298 -0.20805798 -0.2440407 0.25541332 0.4204157 -0.29481462 -0.06854628 0.16973764 -0.037311975 0.32800436 0.010965505 -0.09991196 -0.20113163 0.1268435 0.57718587 0.40171704 -0.092198715 -0.27499574 0.011360736 0.42160308 0.64956546 -0.3099218 -0.10628723 0.40287966 0.30451176 0.26926428 0.5155873 -0.0890877 0.06275409 0.15605673 -0.6796862 0.3389626 1.1301498 1.1712966 0.1100941 -0.082716286 0.061323654 -0.72931296 0.033135436 -0.8579191 0.07810987 0.52944756 -0.30436102 -0.16381511 0.43867987 0.008543178 -0.018524371 -0.2608706 -0.46720424 -0.031581882 0.3662294 0.67954713 0.09643291 0.43273243 0.20256984 0.04379513 -0.32554334 -0.6212069 -0.17373739 -0.038706165 -0.43546253 -0.82057655 -0.25788027 1.1152893
25 0.4194848 0.6887117 0.32887286 0.123146676 -0.5583182 0.49777946 0.07014302 0.5683476 -0.34931558 -0.14450243 -0.011761745 -0.13504258 -0.70703566 -0.9292056 -0.11584535 0.02735872 -0.17482841 -0.18313007 0.1615288 -0.23510076 0.5347994 -0.06735436 0.57027197 -0.3333732 -0.1624146 -0.055415105 -0.09610415 -0.29433385 0.30104956 0.19249582 -0.24608159 0.48212177 0.97371936 -0.30828238 0.4533511 -0.13382883 -0.5585606 0.103289045 0.3937395 -0.24190386 -0.82115823 0.1059039 -0.5012954 -0.67589045 0.308314 -0.76493996 0.7797222 -0.337373 0.39266324 0.7308006 0.29438144 0.5197746 0.4984902 0.2260037 -0.70458543 0.14639565 -0.09873777 -0.024527188 -0.54643506 0.55580807 -0.08102096 0.035060737 0.8319669 0.63901603
311 1.093332 0.6978673 0.6830513 0.31275195 -0.31956318 0.26354703 0.036980163 0.53396916 -0.049427267 0.010189268 0.12776847 -0.1921321 -0.3714025 -0.18809311 0.74024403 0.106781825 -0.40113503 -0.044932645 0.53064716 0.16630943 0.13465297 -0.0717237 0.0154429 0.57019436 0.23134238 -0.7852091 0.74968666 -0.3794736 0.6090447 0.032360587 -0.23051871 0.51673084 0.54243803 0.10854242 0.79495233 -0.29498193 -0.40653312 -0.18128759 0.018236069 0.3465836 -0.50611055 -0.05168885 0.12573968 -0.082096435 0.6853168 -0.56332576 0.27699605 -0.12814943 0.44116536 0.04859015 0.3777667 0.4756444 0.26815787 -0.31896883 -0.33330977 0.23522368 -0.71192855 -0.4593713 -0.11669493 0.26498353 0.22224349 0.29832697 0.94686735 -0.17044698
105 0.98854136 -0.52239215 0.10428571 -0.1254021 0.40264258 -0.5708472 -0.008657663 -0.12112771 -0.30680862 0.49962646 -0.49201775 -0.587168 -0.46042892 0.2721207 0.16129218 0.16892408 0.13132615 -0.45576617 0.033113413 0.23649721 0.7910405 -0.51784116 -0.25757182 0.32849964 0.26337516 0.17652303 0.6709854 -0.15824933 0.114913546 0.049707208 -0.14789513 -0.046382245 1.0751882 0.8017543 0.052036725 0.289617 0.0009756008 -0.46131653 -0.13377951 -0.08387662 0.1827032 0.4602988 -0.5008623 0.08868657 0.41252685 0.087900445 -0.01775296 -0.040504977 -0.27999866 0.49439442 0.31014535 0.93068296 0.22701895 0.19413976 0.30881047 -0.18395667 -0.58079326 -0.79929817 -0.5016821 0.11025917 -0.17564234 -0.38434565 -0.36979607 0.83980644
138 1.1495122 0.47596493 0.46543893 0.41706318 -0.5402467 0.42083207 0.03818931 0.72478265 0.05229013 -0.100610204 0.10320998 -0.20793594 -0.565708 -0.15688542 0.47676435 0.39454937 -0.5914722 0.40422156 0.7672986 0.044201896 -0.15765089 -0.26839933 -0.17071107 0.39113018 0.07445785 -0.7017554 0.46061492 -0.21856251 0.07893239 0.3170426 -0.16957796 0.23854455 0.749449 0.15419386 0.99142045 -0.18200001 -0.31194815 -0.3592012 -0.04300691 0.001108644 -0.23093462 0.026997836 -0.09490088 -0.011602442 0.61353904 -0.8890649 0.35020065 -0.01660902 0.31996563 -0.121464364 0.28195187 0.22516716 0.021442235 -0.34744444 0.029914267 0.4080334 -0.5753546 -0.41554078 -0.094517514 0.27539933 0.46366552 0.045433998 0.5617721 -0.5105107
223 0.5950717 -0.4560518 -0.000131598 -0.31834677 -0.11805577 -0.058640197 -0.62010807 0.31243134 -0.0010586021 0.39291447 -0.51457024 -0.21164535 -1.129859 -0.111655876 0.48706618 1.1140417 -0.775928 -0.23986505 0.41328233 0.33749297 0.2598802 -0.9033607 -0.08649724 0.28612036 0.52427906 0.08251178 0.49442714 -0.040384874 0.17966926 0.38928056 -0.13924462 0.29131263 0.4438744 0.1013381 0.5256734 0.23429929 0.097644314 -0.64052975 0.08700593 -0.8136496 0.3026341 0.15573059 -0.37587145 -0.12570298 -0.2772762 -0.20133847 0.03401011 -0.20435224 -0.33483294 -0.50962216 0.33542594 0.4272808 -0.39318907 -0.3486228 0.00666435 -0.3080937 -0.0884003 0.04738186 -0.06422007 -0.013478591 0.2262353 -0.7469839 0.5472317 0.5229811
409 1.0761153 -0.3474038 -0.10979058 -0.47876984 0.21730632 -0.10419657 -0.24285385 0.542021 0.28615016 0.38023603 -0.12934439 -0.3480734 -0.40837088 -0.2060961 0.66991806 0.7383114 -0.64096797 -0.41649485 0.0529031 0.61628884 -0.10072275 -0.87033546 0.10756369 -0.123634726 0.31207046 -0.29250112 0.04044144 -0.25115776 0.003063362 0.1785688 -0.08688325 0.5316311 0.7195116 0.2147219 0.7023356 0.7349863 -0.12602104 -0.20421103 -0.13534918 -0.9894242 0.07398371 0.26615447 -0.18119045 -0.31280464 -0.19281624 -0.1313476 0.15448686 -0.2219821 -0.24241902 -0.44113007 0.2682018 0.37701648 -0.232363 -0.04455997 -0.029125644 -0.27069217 0.041957363 -0.013099326 -0.2284815 0.0031368255 0.012085091 -0.713925 0.26101995 0.71392363
93 1.1764612 -0.26802284 -0.3003359 0.011914132 0.21732506 -0.0797913 -0.3035315 -0.15727171 0.23024085 0.40950426 -0.33101222 -0.16921496 -0.35296404 -0.116477065 0.3461063 0.55718505 -0.18351874 -0.3523754 0.098764166 0.74828136 0.30392128 -0.8508145 -0.23793122 0.3992366 0.119202204 0.18079455 0.07304531 -0.21670239 0.063875824 0.06859519 -0.39929768 0.21721964 0.8996809 0.68782914 -0.009442593 0.27342036 0.0017019295 -0.85304064 -0.12624083 -1.0709323 -0.26011232 0.022171877 -0.30928338 0.17204604 0.13118516 0.15443686 -0.009778711 -0.25370052 0.035668343 -0.5099554 0.42238012 0.3806649 -0.22451381 0.32666403 0.07859765 -0.13986461 -0.3073362 -0.68588907 -0.0639109 0.008021458 -0.13092107 -1.0754256 0.26214656 0.7283949
353 1.0128751 -0.27555472 -0.073809 0.24351501 0.32445946 -0.18597089 -0.109928295 -0.011854532 -0.18661939 0.6156863 -0.22525623 -0.2850957 -0.3782619 -0.04947535 0.09855779 0.71043223 0.012475245 -0.23059444 -0.03092955 0.50675637 0.48931465 -0.34176052 0.094399855 0.32204413 0.22350377 0.6215876 0.45591176 -0.065314904 0.04512961 -0.15269226 -0.19847745 0.20167519 1.156278 0.88322896 -0.075220324 -0.1530529 -0.06811397 -0.88507634 -0.048318584 -0.8724121 0.21958272 0.46236682 -0.30900773 0.33686596 0.2622353 0.0865967 0.025264045 0.023202954 -0.18836205 0.10265075 0.2784619 0.6368482 -0.25079337 0.069011904 -0.055704955 -0.06961157 -0.539662 -0.7496616 -0.5604115 -0.21942054 -0.22322524 -0.5946411 0.048460223 1.053047
501 0.6922613 -0.08524806 0.31710473 -0.07844961 0.29372415 -0.0947695 -0.083617344 -0.10380132 -0.20507126 0.5904788 -0.56133264 -0.4957143 -0.83600503 0.33299616 0.22243124 0.68859506 -0.541193 0.00049897045 0.12723099 0.3709524 0.29848957 -0.4411567 -0.47303328 0.098945595 0.28072083 0.34405428 0.84716135 -0.2570007 0.089980975 -0.13647924 0.2686529 -0.14436658 1.0246507 0.7488825 -0.076123886 0.51640856 0.21677905 -0.5231569 -0.13524038 0.11659605 0.059759907 0.34035298 -0.438648 0.14322805 0.36938283 0.3665354 -0.14507374 -0.19568536 -0.23770908 0.6285748 0.466247 0.8177371 0.23978026 -0.11759057 0.5171175 -0.33564982 -0.31444395 -0.62672913 -0.48264566 0.19506802 0.28365672 -0.49536228 -0.11750586 0.6189424
385 1.1579967 -0.42780453 -0.10439028 -0.20311323 0.19304825 -0.029602056 -0.40889934 0.43360263 -0.08744092 0.5180548 -0.28777823 -0.061268862 -0.69643086 0.1087885 0.48116183 0.67397296 -0.5368977 -0.21749514 0.20803222 0.8675816 0.36505046 -0.8862906 0.04922433 0.15134066 0.2338602 0.20631708 0.35783955 -0.13680622 -0.112505026 -0.062207177 -0.6437236 0.32603952 0.4030547 0.33930287 0.1572828 0.32736906 0.009589073 -0.78232694 0.1335777 -0.6742355 -0.14804679 0.07083755 -0.11423426 0.008664871 0.010494253 0.13397054 0.14545226 -0.27567852 -0.31848788 -0.39617875 0.4405544 0.6275911 -0.47619045 0.24492222 0.006775973 -0.3107607 0.21681736 -0.35588816 -0.14533387 0.16133325 0.29334384 -0.6470802 0.45476758 0.46137837
133 1.0817041 0.15941767 0.40947717 0.35719696 -0.07263396 0.018209273 0.008476511 0.48875856 0.010372487 0.0065859873 0.15710296 -0.66643 -0.7364609 -0.19542728 0.25551438 0.258656 -0.6193903 0.324222 0.28699684 -0.025554016 -0.48087323 -0.48344243 -0.12144776 0.61276525 -0.181431 -0.76006067 1.0615909 -0.061894976 0.15291868 0.38261518 -0.32598403 0.14086422 0.61657196 0.26811677 0.8352317 0.055774834 -0.26621118 -0.25555307 -0.16776149 0.07065491 -0.090725586 0.100257784 0.080244675 -0.12699229 0.69424665 -0.84404474 0.4169353 0.19003808 0.3573077 -0.31168583 0.22587405 0.49075344 -0.34581345 -0.08842921 0.02721092 0.08008174 -0.30907735 -0.5898742 0.1365689 0.09640886 0.34583765 0.12676026 0.76425165 -0.3189912
301 1.036599 0.5259317 0.039411522 0.22309409 -0.44447243 0.44112232 -0.27283776 0.8856791 -0.23956574 -0.27163318 -0.029819606 -0.72306836 -0.4212947 -0.18795821 0.1152158 0.3313178 -0.62862 0.14599948 0.5456061 -0.046189778 -0.15083162 -0.33256677 0.14411104 0.4354048 0.151013 -0.36512825 0.5876723 -0.15772806 0.13130942 0.5440613 -0.39382347 0.2044961 0.839723 -0.03180661 0.89490277 0.24966931 -0.32117462 -0.1681363 -0.035434544 0.02515276 -0.08177123 -0.40384933 0.0398003 -0.17333235 0.6061798 -0.7998971 0.008133438 -0.06496982 0.30834255 -0.10323572 0.18548697 0.3277818 -0.20110476 -0.2777899 -0.26503548 -0.19134878 -0.32299617 -0.44248074 0.17362456 0.3043881 0.24420679 -0.25524735 0.76064235 -0.30746353
340 0.90865844 0.5069425 -0.24102624 0.27082542 -0.4558454 0.34586278 -0.46659854 0.38122225 0.17550659 -0.19780637 0.1180438 -0.40517992 -0.712748 -0.54038 0.7479218 0.9871643 -0.415628 -0.34412268 0.53816885 0.03186531 -0.030742005 -0.6918273 0.25041255 0.30157626 0.07848589 -0.47576958 0.97015357 0.14049524 -0.14716989 0.19137563 -0.44570222 0.029579885 0.64842117 -0.0978947 1.0628914 0.02857598 0.07575712 -0.35890105 -0.10269032 -0.46467665 0.19528612 -0.26746786 0.033897925 -0.35788992 0.061878197 -0.72985345 -0.011445297 -0.3214736 0.047222316 -0.34225407 -0.08086894 0.37331325 -0.17981273 -0.05815423 -0.6525813 -0.23774253 -0.05693727 -0.0735119 -0.2950233 -0.011255707 0.76263994 -0.42388916 0.34988698 -0.15950315
375 1.2623177 0.4616078 -0.17892349 0.14487451 0.0032064363 0.34105203 -0.45443454 0.54446495 0.012178297 -0.10964895 -0.2773129 -0.4721018 -0.1562353 -0.5114711 0.9330912 0.6698297 -0.17768674 -0.14495084 0.43230054 0.38414252 -0.24434179 -0.7182456 0.36595324 -0.028001737 -0.03766252 -0.25298294 0.45339045 -0.4029233 -0.47711822 0.12906 -0.11131055 0.3558996 0.67119056 0.08228333 0.9501005 0.2419748 -0.19689305 -0.39218485 0.16942285 -0.62241346 -0.6150354 -0.38001028 -0.060116194 -0.22417964 -0.28355017 -0.13337485 0.35947752 -0.3181634 -0.19052507 -0.32231885 -0.008954477 0.5273384 -0.17104009 -0.24478804 -0.8892014 -0.019496782 -0.0155995395 0.2332292 -0.42565086 0.032158077 0.08365386 -0.6258476 0.7289785 0.07366097
293 1.1438549 -0.4690126 0.2544111 0.17611612 0.13256365 0.13691273 -0.18799645 0.41005912 0.023528427 0.35919163 -0.09122832 -0.53168577 -0.9729971 0.20963483 -0.12093654 0.64710754 -0.2440054 0.17557636 0.6061012 -0.10168183 -0.31333387 -0.4571189 -0.14506291 0.6258926 -0.049762618 -0.24602182 0.58753735 -0.40427068 -0.043674514 0.1166417 -0.04014938 0.353824 0.4011366 0.39238033 0.598683 -0.09147337 0.62841815 -0.4412099 -0.088084735 -0.27468017 0.43178883 0.059002675 -0.17494926 0.0773085 0.24558516 -0.6832256 0.18568568 -0.49998248 -0.30585715 0.07037111 0.6220773 0.572313 -0.6930641 -0.16401534 0.16706076 -0.70919013 -0.0051559964 -0.43732414 -0.27914232 -0.3039666 0.4300806 -0.46801916 0.6203054 0.2621924
464 0.85426503 0.71927387 0.03540061 -0.06338802 -0.3541199 0.73713607 -0.22504292 0.5746664 -0.048886172 0.25749144 0.07079458 -0.7234049 -0.5914238 -0.45645574 0.12959361 0.6219037 -0.6442106 0.049490534 0.54690176 0.009751761 -0.27681267 -0.3920674 -0.0060556657 0.33001417 0.1577721 -0.29476392 0.7482576 -0.12706554 -0.07289541 0.15620966 -0.3956899 0.22762471 0.94298834 -0.07948968 0.82637686 -0.04243951 -0.18404575 -0.29522368 -0.097221434 -0.19284178 0.05694287 -0.33980435 0.05751036 -0.07321266 0.1932129 -0.9321109 -0.08166725 0.21912645 0.3495179 -0.20303872 0.012204552 0.5538708 -0.30898282 -0.32977632 -0.42015153 0.14723612 -0.12735935 -0.2547461 -0.16296385 0.016065711 0.62247 -0.33491668 0.63701975 -0.20545202
399 1.0214546 -0.14136048 -0.16211392 0.2816159 -0.036016155 0.457082 0.009536381 0.5259707 0.2822403 -0.36447042 -0.08808216 -0.47084466 -1.0559243 -0.042771835 0.16681968 0.59479105 -0.37745693 0.05502453 0.5739399 0.20686874 -0.7239804 -0.24165063 -0.0786615 0.7423887 0.15927924 -0.67943746 0.9944672 0.03160783 0.18031783 0.034703676 -0.0010041188 0.17029838 0.6103755 0.30612585 0.82672155 -0.073627435 0.11065608 -0.33525994 -0.146747 -0.1286103 0.107301645 0.16158403 0.04434236 0.04322199 0.64432305 -0.85979813 -0.05219212 -0.11426804 -0.010559481 -0.14673246 0.18117385 0.82888216 -0.2872953 -0.12121829 -0.26296556 -0.5450946 0.18187067 -0.3850034 -0.24681397 -0.40101987 0.68308806 -0.54734427 0.38868406 -0.007996561
476 1.1456074 -0.46383786 0.13367194 0.11384405 0.21537572 0.46717665 0.0821993 0.36296034 0.018140428 0.094477616 -0.18646877 -0.5489769 -1.0624553 -0.047661547 -0.24758217 0.7918896 -0.68911535 0.43045524 0.50314623 0.09787393 0.12411298 -0.6498614 -0.10791261 0.5612251 0.10041837 -0.3230782 0.7714395 -0.04434168 0.11600876 0.31824157 0.16209957 0.10968568 0.47594148 0.6301434 0.3219137 -0.15675125 0.82814366 -0.6300063 0.3739521 -0.1949864 0.19499458 0.197568 -0.17778799 -0.07761335 0.41522565 -0.39993605 0.18139443 -0.1651278 -0.34207034 0.4621775 0.61097383 0.28073406 -0.82078713 -0.089768454 0.1746785 -0.7126602 -0.1841243 -0.15072769 -0.3137649 -0.35460305 0.32082072 -0.23027496 0.26875636 0.45576325
196 0.44996604 -0.3526773 0.6653834 -0.1928617 -1.1169946 0.6212411 0.17231898 0.11820765 -0.64627993 -0.18362133 0.12733927 0.40220368 -0.52867687 -0.30864584 1.058028 -0.2906206 -0.35595444 -0.35156107 0.08257057 0.33277014 -0.39438102 -1.2548991 -0.26869285 0.8086929 0.13973126 0.789131 0.5546756 -0.23988312 -0.5182857 0.8320428 0.26307333 -0.058371574 0.4473336 0.64056116 0.28643718 -0.38254708 0.3253185 -0.24423954 -0.42776734 0.34481075 -0.5884319 0.28366423 -0.65841407 -0.3308267 -0.023469698 -0.23670879 0.5820469 0.26782364 0.16054384 0.37473294 -0.42215618 0.0312186 0.5618988 0.7315424 -0.15233673 -0.63737106 -0.41137725 -0.47431257 -0.35728997 -0.30233485 0.3155968 -0.2956256 0.3193652 0.48538616
496 -0.24857803 -0.20962009 0.5236569 0.21659237 -1.0489293 0.37031785 -0.4895374 0.20036463 0.25613037 -0.26831976 0.29693264 -0.6912046 -0.20878819 -0.1981136 0.5821702 0.5559847 0.06113479 -0.33847553 0.19149551 -0.06175675 -0.16927348 -0.6387835 -0.3010247 1.2033771 0.12884422 0.23348556 0.31201428 -0.8542691 -0.8811529 0.25306565 -0.31908628 0.7932914 1.0313526 0.15954131 0.24213938 0.55929315 0.052011017 -0.5715881 0.105940714 0.6957246 -0.27696186 0.42002577 -1.5122752 0.18839762 0.20821294 -0.072290614 0.5590699 -0.022766186 0.14353096 0.3290144 0.40469733 0.28129146 0.07317552 0.84091383 -0.17970166 -0.43360168 -0.3598388 0.5357842 -0.44605255 -0.64065593 -0.25840294 0.09936033 0.47094548 0.2783145
13 -0.0038160707 0.3777752 0.1226903 0.107773244 -0.44532984 0.20159686 0.098454006 0.23027942 0.30424246 -0.4683797 -0.29072022 -0.5148079 -0.045150246 -0.45857152 0.7427158 -0.15322591 -0.6325004 0.24382862 0.14789005 -0.8693568 0.27084553 -1.1842834 -0.027126864 -0.19774964 0.14363223 0.13187571 0.11902456 -0.17092215 -0.034407973 -0.05019321 -0.38957173 -0.20639955 0.6410315 -0.51812553 -0.23844208 -0.6333488 -0.5054504 -0.15227632 -0.48441002 -0.65340286 -0.4097906 0.61086905 -0.8305087 -0.15537141 1.0556781 -0.43295816 0.48964867 0.07817496 -0.4754236 0.8504989 0.31030002 0.7887596 0.0964769 0.36769956 -0.1783072 -0.5348561 0.5117221 -0.35984892 -0.87293935 0.33672693 -0.29552844 0.13225713 0.5431312 0.531893
170 0.08672466 0.28209096 0.35212576 0.23755273 -0.47036013 0.19115289 0.7351388 -0.0020677715 0.14754996 0.42518407 -0.54462147 -0.24727608 -0.50388813 -0.3529124 0.019478694 1.0440702 -0.18645099 -0.419913 0.22317271 0.21975538 0.15171103 -0.17131567 -0.07140334 0.74508065 0.2676081 -0.89938086 0.042411283 -0.0067571984 0.47579578 0.9214426 -0.8577546 -0.49980485 0.7329114 0.13618517 0.25601473 -0.76243025 0.4223272 -0.5523258 -0.9508233 0.3573827 0.29218012 1.0162424 -1.2756118 -0.24290879 0.2552769 0.20174655 0.34203696 0.30725247 0.07072805 0.11773634 0.033451587 0.2811756 0.66538185 0.11544399 -0.8057085 -0.3736965 -0.19579922 0.0601955 0.4727927 -0.055838056 -0.015065981 -0.19033939 0.16136633 0.65386546
158 0.9308748 0.14733428 0.22022648 -0.17943227 -0.77775156 -0.33554283 0.00218318 0.7916583 0.29126284 0.04246152 0.049656413 -0.18783875 0.11188019 -0.5348162 0.77968 -0.26985484 -0.59417397 0.34392217 -0.07534792 -0.12414677 0.029940784 -0.5403504 -0.1225101 1.0187515 -0.08996483 -0.14094882 0.11616923 -0.6412302 0.3285484 -0.15656702 -0.495016 -0.36179453 0.63027745 0.2011881 1.0125524 -0.4496788 0.15626231 0.018311378 -0.0869515 0.22569957 -0.30151042 0.022769047 -0.2276733 0.09791721 0.12152546 0.73418623 0.31892046 0.013002626 0.0092476765 1.1865041 -0.27998683 -0.09972958 -0.23694536 -0.712056 -0.5401343 0.060692694 -0.7503106 0.4454451 -0.6850058 0.49928418 -0.16307947 -0.054974966 0.36165234 0.822054
298 0.62351054 0.29582676 0.121212006 -0.31465086 -1.022847 -0.14511831 0.17351742 0.6380315 0.536415 0.47975558 0.19404064 -0.25943145 -0.09441334 -0.20524432 0.64921945 -0.45139763 -0.5062862 -0.059224725 0.2812686 0.03397417 0.1423853 -0.59788626 -0.42555776 0.9468755 -0.043004166 0.06558464 0.0058189845 -0.8967455 0.21524188 -0.17560044 -0.255784 0.036798656 0.71814317 0.36910447 1.0144802 -0.6286189 0.17845273 0.18760139 -0.15315057 -0.13157965 -0.28647912 -0.006309059 -0.6856762 0.47359243 0.26865187 0.6042419 0.024486544 0.24990362 0.07797499 0.8717128 -0.05894893 -0.29893854 -0.013708442 -0.9540237 -0.5303745 -0.19448815 -0.71477973 0.31958163 -0.8053652 0.6415989 0.0722883 0.2783473 0.15237659 0.94367707
80 0.91638076 -0.24789628 -0.21834129 -0.059849434 -0.22509442 -0.09989764 -0.55985177 -0.42104247 0.04431745 0.9349094 0.30094853 0.40052027 -0.2322986 -0.4765919 -0.09288543 0.32531494 0.54337126 -0.14642096 0.13865107 0.55988246 0.43372422 0.11238745 -0.44721165 0.82692796 -0.44440404 0.28836304 0.71157473 -0.13788435 0.13209021 0.007921746 -0.36185238 -0.25455353 0.88412267 1.1572453 0.66822946 -0.050789367 -0.10989707 -0.009517502 -0.34012863 0.24587183 -0.78752744 0.75577337 -0.74382204 -0.06661385 0.8233503 -0.003316837 0.37817416 0.38501793 -0.61581403 0.79103094 0.3390833 0.65320987 0.9732032 0.568762 0.074521355 0.09173858 1.0204059 -0.050694942 -0.5099908 0.47817272 -0.4664339 -0.74971384 0.3486827 0.6589438
366 -0.082917735 0.022708006 0.23427466 0.4746601 -0.49606827 0.22113356 0.43824 0.22219576 0.04183586 -0.124822706 -0.77933264 -0.3681381 0.06856675 -0.023896016 0.20486273 0.3921647 -0.3385382 0.22351177 0.85681605 -0.51931655 0.06714915 -0.604211 0.09697374 0.7045753 -0.022207111 0.3290118 0.3849573 0.02581147 -0.17863785 0.01561641 -0.6442407 -0.15029192 0.45647138 -0.037714433 -0.49578455 -0.7557253 -0.19774643 -0.29019576 -0.9786025 -0.15321667 0.36600408 0.94249123 -1.0857449 -0.19287296 0.66398954 -0.24814151 0.8501378 -0.31038383 -0.18852094 0.48308334 0.32398522 0.041485343 0.5025756 -0.13742678 -0.34445888 -0.5747081 0.5795917 -0.6890027 -0.5456185 0.5218311 -0.06953008 0.081669524 0.90505517 0.84317094
72 -0.67717767 -0.48986366 0.16090801 0.36394927 0.28586757 0.24660034 0.12356865 0.11146019 0.254735 0.843527 -0.032070253 -0.73314315 -0.36755213 -0.50594586 0.41875345 -0.0014207349 -0.47861597 -0.39629555 0.012784815 -0.1073956 -0.035220247 -0.045915224 -0.58977175 0.9496637 0.12853155 -0.28778476 0.52980876 0.09763385 -0.19217573 -0.40350944 -0.9848824 0.30994967 1.6839305 0.26106635 0.41032007 -0.5865701 0.29924256 -0.18451583 0.42881665 0.11811526 -0.4694828 0.20997487 -0.52645373 -0.26632473 0.6393708 0.06225684 0.20459935 -0.07828007 -0.7505444 0.10650498 -0.6032029 0.34454608 0.47417608 1.0266782 -0.21138193 0.30800843 -0.6881098 -0.78958887 -0.66352624 0.6758124 -0.35116008 -0.4207877 0.30410406 0.41276672
52 0.15740693 -0.37600356 -0.68598 0.4751718 0.1724089 -0.12313355 0.07584915 -0.14712332 -0.10657869 1.0768026 -0.20427863 -0.46944332 0.0121858595 -0.2050215 0.72067976 0.015316346 0.1930137 -0.22659416 0.2240885 0.26291645 0.018150454 0.11092635 -0.2661256 0.5017103 0.17177221 0.14089237 0.6858825 -0.4446188 -0.39175484 0.1931615 -0.13270125 0.23318042 1.5902057 0.55194324 0.2944987 -0.45442584 0.37054664 0.03271301 0.33574322 -0.36463028 -0.4218256 0.41581315 -0.6587993 -0.17842254 0.9347818 0.24151017 0.18617702 0.15589143 -0.5731458 -0.059309088 -0.24627143 0.47407636 0.17040347 0.806835 0.23433399 0.16984598 -0.23756745 -0.6046062 -0.27590945 0.690575 -0.3635695 -0.43969837 -0.02233868 0.54393715
48 0.7618373 0.5446731 -0.09863126 -0.28003934 -0.85867417 -0.2554864 -0.06367559 0.6466299 0.04286952 0.4701011 0.2672187 -0.36102554 -0.05111636 0.1223492 0.6953513 -0.32225963 -0.54604435 0.2653768 -0.10676678 0.037529107 0.029938322 -0.050494134 -0.07991265 1.2063332 -0.10308356 -0.46185645 0.30053952 -0.6338594 -0.11935327 0.08911597 -0.29033318 0.26340598 0.3377404 -0.14812782 0.7324119 -0.30324888 -0.19143109 -0.27858326 -0.6405687 0.07343185 -0.8560212 0.11796348 -0.48903105 -0.15499441 0.60358113 -0.0021388656 0.29694355 -0.053044032 -0.30542552 1.2762067 -0.40078476 0.103716604 -0.27940053 -1.0162959 -0.43107033 0.16449592 -0.4603204 0.19438705 -0.18999144 0.5309321 -0.27350944 -0.0138319675 0.14253251 0.863997
403 0.5000668 -0.5814081 0.8273794 -0.31073806 0.07240013 -0.3792961 -0.18267916 0.046022642 0.19741842 -0.40076134 -0.522933 -0.2452459 -0.91337276 0.20873028 -0.19340983 0.20070033 -0.6765188 -0.1916688 0.24491994 0.07724859 -0.3931028 -0.36798579 -0.8899852 -0.06275072 0.4798929 0.44884184 0.34490186 -0.5061133 -0.13061377 -0.092009604 -0.51709956 -0.088257805 1.1008441 0.11131302 0.3930558 0.12291229 0.160156 0.24887158 -0.84844697 0.12607338 -0.4110091 0.1898131 -0.8337619 -0.22046755 1.1052521 0.29051366 0.23313826 0.037254978 -0.4717126 0.5877156 -0.034964893 0.50891095 -0.2430356 -0.04149172 0.42465943 -0.6064812 -0.26540408 0.15704891 0.24178696 0.0036636826 1.29739 0.021383056 0.080324836 0.8515932
514 0.7881357 0.57284164 0.1413689 -0.09534614 -0.7059607 0.29134774 0.03218505 0.6771029 -0.045246974 0.5683897 0.24006033 -0.6685323 -0.28973332 -0.5313353 0.58061475 -0.062496725 -0.33515826 -0.069426015 0.31148928 0.33944562 0.32213563 -0.17327066 0.32677248 0.50027144 0.1365649 -0.544738 0.2947025 -0.728232 0.008982266 -0.08272082 -0.58604 0.2411362 0.5034513 0.58403885 1.1560919 -0.13274744 -0.19798306 0.14432462 -0.06007644 0.3047677 -0.5913076 -0.7337162 0.20490772 -0.13464434 0.30693248 -0.13427743 0.87273675 0.38825205 -0.2098948 0.6205339 -0.3637685 0.09184062 0.33699664 -0.8500232 -0.51647127 0.10300631 -0.5134919 0.08960989 -0.01364506 0.29132774 -0.07193541 -0.20794147 0.48304266 0.117013864
264 0.5430052 0.6921787 0.06759521 0.4347552 -0.3132548 0.47478703 0.11446116 0.4285103 -0.35968792 0.16101733 -0.04915685 -0.40090275 -0.869158 -0.5704353 0.63496894 0.15649252 -0.066012524 -0.32705876 0.22803389 -0.36218333 -0.13996597 -0.15372498 0.51578194 -0.16235104 -0.02515892 -0.044809103 0.243151 -0.35947448 0.4295721 0.48678276 -0.54355866 0.5336157 0.7719466 -0.2210491 0.75464326 -0.3265046 -0.8244452 0.007464014 0.624721 -0.20760798 -0.8829249 0.29460093 -0.25591174 -0.4284829 0.44920722 -0.9520689 0.79349875 -0.07235957 0.33813006 0.63045555 0.52794117 0.362497 0.4093033 -0.0058486504 -0.7405275 0.38525897 -0.22437999 0.015890501 -0.05204933 0.10218386 0.058924336 -0.15307797 0.76887065 0.16092445
467 1.2361091 0.7755361 0.1401892 -0.11478455 -0.3666493 0.4870651 -0.034752242 0.61478484 0.1590846 0.24460931 0.28649086 -0.59056896 -0.2760696 -0.6876504 0.5347644 0.012103253 -0.38974437 0.0636342 0.29148 -0.02363397 0.094375074 -0.26082036 0.40418318 0.188042 0.25799674 -0.39222148 0.32970998 -0.48921514 0.228836 0.07018847 -0.82307506 0.30465725 0.31731984 0.17335565 1.2722517 -0.04505235 -0.25674656 -0.23527825 0.12439073 0.042326923 -0.4363148 -0.49640206 -0.14282593 0.29504183 0.37343213 -0.3706903 0.6346455 -0.2912602 0.25018272 0.24350466 -0.39851245 0.14995402 0.52779853 -0.695139 -0.44245777 0.22154939 -0.5444821 0.035371013 0.0070212376 0.20255587 -0.122351296 -0.04278299 0.6748551 0.028493283
517 0.71327585 -0.4631484 -0.15990154 -0.21739306 0.2152596 -0.0045447494 -0.4624836 0.2509333 0.08710347 0.22627619 0.0047845244 -0.33306736 -0.8741045 0.35704732 0.20153551 0.859199 -0.5623546 0.029031504 0.3698979 0.5765191 0.17467119 -0.9624026 0.029015437 0.16010916 -0.02625466 0.33262053 0.42340374 -0.08049731 -0.15033112 0.14109 -0.24323057 -0.119598 0.8410686 0.23679677 0.4009167 0.35672107 0.21123245 -0.79351693 0.0903422 -0.8635156 0.24004118 0.083193816 -0.42214575 -0.39866087 -0.1575741 0.087901406 0.26424456 0.18768342 -0.17001274 -0.19635208 0.53484637 0.5145532 -0.4501641 -0.2995173 0.11276254 -0.46303102 -0.09757142 -0.08620965 -0.1634124 0.08787492 0.21130371 -0.77480274 0.36985677 0.5434907
6 0.8663544 -0.29527783 0.030307569 0.27652442 0.4824751 -0.16789483 -0.31315336 0.24594241 -0.42240417 0.6675188 -0.27957806 -0.32920432 -0.8835411 0.20365256 -0.14004117 0.76146865 -0.5049751 0.14378601 0.49649572 0.30422056 0.044842158 -0.47947693 -0.6717097 0.055185206 0.60902673 0.40410897 0.49055502 -0.1418864 0.09261444 0.11521074 0.07823721 0.02220828 0.33445817 0.3481515 0.6515359 0.4559672 0.14920636 -0.28698266 -0.3387127 -0.13459072 0.021963181 -0.04627495 -0.9875352 0.007816633 0.31402516 -0.2228242 0.12374057 0.026585408 -0.26744688 0.404235 0.83162653 0.5780643 -0.15860426 -0.12121805 0.31891936 -0.7110309 -0.19038147 -0.2074277 0.12763718 -0.20263366 0.6323822 -0.28158042 0.022475779 0.44811773
400 1.0941106 0.02967795 0.12248664 0.24435307 -0.18316084 0.156342 0.09596334 0.48590368 -0.054899745 -0.03733886 -0.019746576 -0.8389677 -0.868121 -0.3190209 0.07019887 0.43510807 -0.3024203 0.30606535 0.33146363 0.13953099 -0.5155031 -0.48499694 0.07634208 0.6289176 0.34229398 -0.6199165 0.8945545 0.06735329 -0.1449486 -0.00886978 0.003706901 -0.07197321 0.77514166 0.26531953 0.9786732 -0.09879965 0.054375075 -0.36489514 -0.2302914 -0.11497085 0.05073804 0.16192761 0.20079009 0.08438665 0.6220854 -1.0091679 0.051112857 -0.17472386 0.12408889 -0.18327662 0.3749387 0.43111825 -0.361086 0.060907822 -0.22258513 -0.4592231 -0.028132265 -0.4976913 -0.0587694 0.09707288 0.62269485 -0.22453582 0.5172929 -0.29872787
384 0.18993823 -0.45116442 -0.19755018 -0.01629871 -0.80142844 0.6134858 -0.6748466 0.46631196 -1.2184013 -0.3707727 -0.73636705 -0.10552876 -0.15146016 -0.89373213 0.07182761 0.8217432 -0.3903118 0.13529554 0.28210503 -0.26968434 -0.66282237 -0.47765005 -0.5658958 0.41278154 -0.18051265 -0.49002028 0.45593157 -0.40372843 -0.41861764 -0.63108546 -0.45591038 -0.5076541 0.92775536 0.6773524 0.29728413 -0.64073646 -0.030886143 -0.42359835 -0.31059375 0.023717385 -0.91227 0.58481115 -1.5013428 -0.71052 0.036041036 -0.5465379 -0.32528058 -0.21324067 -0.09668572 0.31201926 0.06183173 0.838106 -0.20951575 0.6037061 -0.44131398 0.12845601 -0.025736107 -0.687412 0.6723468 -0.26778287 -0.4665623 -0.08804865 0.43150282 0.975033
225 0.7816613 -0.032083146 -0.023180282 0.5806056 0.11392384 0.5670951 0.32949817 0.35291973 -0.18341216 -0.38311803 -0.2173602 -0.109437205 0.027040398 -0.8143048 1.0328035 0.60363257 -0.93099904 -0.8150566 1.1537101 0.4455325 -0.36805552 -0.15066002 0.08510049 0.81630564 -0.15727198 -0.07186985 -0.26869944 -0.7551201 -0.41395012 -0.0706742 -0.22863168 0.05667437 0.43509972 -0.12610894 0.3244144 -0.81259257 0.72321355 0.565599 0.17460676 -0.24792194 0.3208641 0.09673629 -1.5349733 -0.16307724 0.8306612 -0.45665324 0.58769554 0.7992947 -0.050924137 0.6664725 -0.30462286 0.8128841 -0.3517147 0.6083799 -0.060745675 -0.1088972 -0.400053 0.303779 0.07901851 0.32402432 0.37408063 0.012853878 -0.25205025 0.925576
269 0.7015708 0.2440212 0.23890379 -0.2718186 -0.9888202 0.93744487 0.26606464 0.12652001 0.042880487 -0.3572681 0.094801225 -0.25002465 -0.03494923 -0.58863163 0.23400857 0.6084017 -0.34632102 0.095060654 -0.2264279 1.406653 0.38971743 -0.545123 0.022539709 -0.19413963 0.40299073 -0.9507315 0.51698506 0.44683 -0.074915536 0.06822833 -0.95982003 -0.22295053 1.4143627 -0.00966858 0.16553058 -0.13845572 0.81309164 0.09414438 -0.58736044 0.3811811 -1.0306594 -0.023026599 -1.3908925 0.11206461 0.47120997 0.16603646 -0.15296873 0.71949655 0.18132468 0.5982623 0.17798717 0.46499544 -0.29386628 0.6646241 0.20287922 -0.5017884 -0.17411922 0.025369775 -0.3574671 0.46488962 -0.2628246 -0.10535463 0.055520345 0.87955815
67 0.8076355 -0.00899924 0.11839176 0.512246 0.22304642 0.3628727 0.36883622 0.5137857 -0.22695118 -0.7461151 -0.3212209 0.030762123 0.013015485 -0.7062737 0.9718737 0.6773047 -1.1679045 -0.7085668 1.1517502 0.405457 -0.33562955 -0.31512168 0.12221717 0.95396394 -0.32906187 0.012228113 -0.20150807 -0.7085467 -0.5616863 -0.14362165 -0.53571993 0.041381285 0.3877752 -0.28245333 0.39273965 -0.527998 0.73881334 0.5922824 0.19175242 -0.17129001 0.29148245 -0.021462474 -1.3864262 -0.21465915 0.8808426 -0.35194924 0.7080857 1.0035495 -0.044856153 0.6141473 -0.16395876 0.6417481 -0.22550471 0.7217318 -0.38856608 -0.4161764 -0.43514368 -0.025328476 0.18715425 0.2799313 0.08365549 0.080553606 -0.21733642 0.8900904
391 0.014057463 -0.44436514 -0.2287565 -0.17834467 -0.67473483 0.5652176 -0.66198426 0.29776275 -1.2038615 -0.45238557 -0.71263146 0.18094586 -0.05538532 -0.76032376 0.12865995 0.66988844 -0.05900777 0.35335532 0.50542843 -0.40271387 -0.5773635 -0.570397 -0.44982216 0.6244163 -0.1406488 -0.6249732 0.3180293 -0.24585776 -0.5073459 -0.6300089 -0.48875192 -0.60859007 1.0604807 0.53456753 0.6005429 -0.6858577 -0.025676716 -0.5336795 -0.1922961 -0.15763228 -0.8059743 0.4929319 -1.5213686 -0.70397824 0.0003781257 -0.49315348 -0.10616523 -0.13348395 -0.31927866 0.28886256 0.19232188 0.91340655 -0.055988535 0.45688823 -0.2324367 0.036857814 -0.28414187 -0.58063066 0.54165035 -0.24693243 -0.20525098 0.04025839 0.38137922 1.0313257
235 0.991279 0.03971632 0.047569957 0.7011205 0.11152551 0.12938505 0.3920795 0.3198628 -0.16135353 -0.3654044 -0.4480397 -0.25278246 0.00992196 -0.9467748 1.1058384 0.33374706 -0.82464105 -0.7125066 0.9958532 0.36299992 -0.095009275 0.051781647 0.1689822 0.894964 -0.19356893 -0.06604477 0.020568058 -0.9012849 -0.4866555 -0.28412595 -0.4157512 -0.028931107 0.55725586 -0.30570808 0.18950896 -0.70723176 0.87024575 0.4553329 0.20124742 -0.27170268 0.27281344 0.023327438 -1.4974025 -0.06977164 0.569758 -0.39894179 0.542037 0.5347915 0.13460448 0.5122609 -0.41113573 0.9420684 -0.24363486 0.9595413 0.00089915976 -0.39810556 -0.4414417 0.16860457 0.027712643 0.30817422 0.30401647 0.05091952 -0.1508098 0.73336875
207 0.58896714 0.4306714 0.23117 -0.03929461 -0.7929204 0.5632953 0.3633357 0.36721963 0.06604488 -0.34239537 0.038407963 -0.09847045 0.14591739 -0.6741446 0.15480512 0.87076586 -0.05709633 -0.043929555 -0.12351883 1.1851118 0.3979612 -0.61127657 -0.18232293 -0.024150144 0.649701 -0.96038574 0.6280887 0.47644615 0.24444082 0.15592982 -0.81120986 -0.25611022 1.3604715 0.058854483 0.29601645 -0.17924649 0.92609054 0.06675157 -0.7102072 0.36357594 -1.3309529 -0.17209607 -1.4231551 0.018651985 0.34031996 0.18164228 -0.041396722 0.703028 0.200162 0.44899055 0.20983534 0.35952199 -0.34784585 0.62313825 -0.07112994 -0.6592902 -0.09005299 -0.1446777 -0.45222926 0.30739018 -0.31842864 -0.07893331 -0.04680127 0.82533014
137 0.77357656 -0.3515785 0.74501365 -0.17386116 -1.5066814 0.49010798 0.060101982 -0.13723011 0.10276759 0.13728829 -0.032673977 -0.18889613 -0.12272913 -0.8675144 -0.03199851 1.0760605 -0.17849003 -0.26780742 0.39344782 0.054953907 -0.39767388 -0.54766756 -0.31336987 0.5045468 0.09852937 -0.28668413 0.28509423 -0.68740445 0.24296574 -0.013397776 0.31272805 -0.023027265 0.97646093 -0.7579683 0.41341987 -0.6131586 -0.4218529 0.141244 -0.18221691 -0.20091952 0.22874202 -0.755239 -0.8722369 0.52658427 0.9192735 -0.062157877 0.020282237 -0.44022116 -0.63597584 0.0937306 0.053002197 0.211475 0.8635929 0.61252636 -0.07071938 -0.7219017 -0.24584973 -0.7175821 -0.21942121 0.23493011 -0.17197384 -0.380325 -0.24505545 1.1908543
326 0.027407292 -0.59715664 0.063496746 -0.2298889 -0.46702588 0.53976953 -0.7289543 0.37976742 -0.83766514 -0.25101072 -0.62799066 0.06596371 -0.1712456 -0.98073566 -0.083759345 0.2929859 -0.06925933 0.47895703 0.28908375 0.033566985 -0.41737148 -0.7363814 -0.27489436 0.88928413 -0.14390224 -0.8928797 0.0121361185 -0.49343506 -0.68957216 -0.5491368 -0.22749975 -0.9507169 0.8953321 0.5492326 0.5448759 -0.715434 -0.25770408 -0.32772008 0.08631849 -0.2839925 -0.6219497 0.38585505 -1.2851927 -0.5473554 0.50852275 -0.23332205 -0.08640977 -0.07265671 -0.103327274 0.3876379 0.05644378 0.9001314 0.13797797 0.087818764 -0.32147917 -0.2680473 -0.4692476 -0.37370273 0.5275416 -0.27555484 -0.49208364 -0.33141384 0.52553946 0.95313936
136 0.9833529 -0.30520087 0.7874926 0.24252796 -1.4518856 0.49726763 0.21491021 -0.24804348 0.24513997 0.35264385 -0.038695466 -0.20402989 0.011870231 -0.97479254 -0.031334873 0.8667391 -0.08901213 -0.31629276 0.60781723 0.1701346 -0.53370494 -0.86821854 -0.5947266 0.30803815 0.14890476 0.0026935881 0.19399974 -0.7301428 0.3245286 -0.19956684 0.1862193 -0.011614353 1.0520248 -0.49384567 0.44444248 -0.56525135 -0.33049232 0.40806383 -0.05170189 0.084218696 0.3195725 -0.7965186 -0.962371 0.26521415 0.7031266 -0.17153125 -0.044806976 -0.20696102 -0.507797 -0.010048221 0.27920786 0.2630785 0.9302765 0.50879407 -0.33367077 -0.6799684 -0.09449356 -0.9505387 -0.3610762 -0.058987107 -0.13906993 -0.16039549 -0.2481482 1.2420977
371 -0.002635343 -0.5429365 0.013104988 -0.20470607 -0.5692512 0.6109857 -0.6134138 0.47148705 -0.87084615 -0.13081717 -0.6547397 0.09778286 0.10700606 -1.115486 0.026530817 0.6757281 -0.0212703 0.28497678 0.38979697 -0.109273486 -0.57973635 -0.69935447 -0.23999251 0.8037597 0.12936543 -0.76642674 0.033230387 -0.38578883 -0.54366255 -0.8345383 -0.094377324 -0.755982 1.0169954 0.6419267 0.5955859 -0.8533861 -0.18725926 -0.45457068 -0.14210214 -0.21658649 -0.8704434 0.5990286 -1.1959375 -0.6211924 0.30956718 -0.578171 -0.21957356 -0.066707976 -0.06607424 0.3774084 0.070806995 0.8187553 -0.02055617 0.17210564 0.04279348 -0.18666989 -0.18661264 -0.3023283 0.44412667 -0.30049244 -0.21451825 -0.2565477 0.3513094 1.0618665
348 0.035573512 -0.60060436 0.08676646 -0.16113438 -0.3888531 0.5445828 -0.67620146 0.3878415 -1.2847165 -0.38875118 -0.757513 0.16351447 -0.1330743 -1.2038975 0.1700881 0.83404297 -0.15608789 0.34067222 0.31332994 -0.23994401 -0.49485412 -0.62043154 -0.49501616 0.7892947 -0.08618543 -0.7969365 0.3627716 -0.490794 -0.52640975 -0.5098383 -0.21757354 -0.63267845 0.8492652 0.43714708 0.3924144 -0.6823436 -0.21306893 -0.36939645 -0.2030005 -0.13341582 -0.92882705 0.5005946 -1.2614155 -0.587936 0.2794598 -0.27653116 -0.2775586 -0.13632318 -0.1945022 0.3419407 0.08373839 0.8539089 -0.13744484 0.26476526 -0.2783129 -0.1042923 -0.20257689 -0.64971405 0.3544251 -0.1762216 -0.4270205 -0.13543473 0.4037229 0.8632151
199 0.8837985 -0.28311828 0.6747978 0.063364625 -1.3562793 0.6302297 0.17780514 -0.225833 0.22996514 0.24618192 -0.033890206 -0.28934175 0.044698637 -0.80561453 -0.019253299 0.93724674 -0.33666676 -0.35605717 0.28330463 0.15107223 -0.6026265 -0.68156433 -0.5382699 0.3107238 -0.17358302 -0.22311756 0.51246536 -0.8378 0.3177945 -0.08192331 0.14385748 -0.04589723 0.97713774 -0.63363475 0.24489328 -0.59795755 -0.2782974 0.36501065 -0.21865427 0.054867998 0.3295106 -0.9032507 -0.9325959 0.20644625 0.85969853 -0.051734295 -0.0878902 -0.4003199 -0.33993238 -0.055830196 0.23461296 0.35937127 0.9542437 0.43703535 -0.11202611 -0.4645048 -0.24046335 -0.6610918 -0.38410884 -0.031258382 -0.15886974 -0.35807163 -0.13718058 1.3728749
325 0.093568906 -0.103478506 0.19137649 -0.23355804 -0.24313234 -0.5483761 0.21681395 0.6758909 -0.11039287 -0.07335685 -0.25903437 -0.51367146 -0.4371285 -0.2973958 1.1667172 0.66290885 0.30962515 0.3470647 0.82202065 -0.3354361 0.28503987 -1.0952283 -0.5719354 0.55188745 -0.5645749 -0.73170483 0.28771213 -1.1331595 0.6868901 -0.38638273 -0.22328767 -0.5564929 1.1470304 0.33856884 -0.056840546 0.22386271 0.26270875 -0.02347405 0.24616948 0.14387178 -0.36382785 0.06261511 -1.0759875 0.19985557 0.81029683 -0.8184967 0.48514217 -0.46180195 -0.22686368 -0.032819133 0.0053229127 -0.06564921 0.2714601 0.25684163 -0.79546505 -0.039848197 0.40431896 0.023358246 0.46270552 0.6051764 0.33126885 -0.491342 -0.42018592 0.87255573
188 -0.03139623 -0.08315458 0.259154 -0.25866753 -0.34852478 -0.3807302 0.077996485 0.60255724 0.15356807 0.14702849 -0.35584745 -0.44074318 -0.20041004 -0.34000012 1.0154253 0.7284665 0.08747374 0.27387264 1.0670708 -0.45773935 0.30462074 -1.0237494 -0.71986276 0.6207214 -0.5288753 -0.7748515 0.070278116 -1.0319777 0.9523521 -0.5080947 -0.13056177 -0.30146024 1.2664448 0.52399737 -0.04409036 0.27178553 0.20102845 -0.1569996 0.36560655 -0.0052917055 -0.40717557 -0.0464363 -0.9884966 0.026504697 1.0296003 -0.6500808 0.40685028 -0.16317701 -0.3354696 0.10671434 0.099507466 -0.055750586 0.002912008 0.2702426 -1.0000812 -0.025715476 0.4330285 0.02256039 0.57662463 0.39955547 0.38692844 -0.44997105 -0.3634688 0.8117028
377 -0.20316234 -0.13538606 0.22285132 -0.002997764 -0.23082994 -0.35007375 -0.0033498951 0.6532004 0.057954 0.03409125 -0.23144042 -0.8184065 -0.20466869 -0.35601664 1.0982442 0.9132913 0.038146783 0.23023792 0.8815051 -0.12742291 0.3565499 -0.8783847 -0.74884754 0.38744268 -0.7620902 -0.90287364 0.1254275 -1.142917 0.90158886 -0.6058033 -0.33355966 -0.40549767 1.3360064 0.4235241 -0.09176422 0.14863798 0.10349387 -0.09677711 0.18847272 0.009629013 -0.34032393 -0.056467656 -1.0521557 0.2830008 1.0519893 -0.70751655 0.2582477 -0.30971137 -0.29450417 0.08727278 0.27856472 -0.025304964 0.01768255 0.068544656 -0.8453756 0.07716569 0.39914724 0.19580945 0.45206255 0.61342245 0.22815756 -0.5818159 -0.3203774 0.86935616
454 0.7733657 -0.3353161 0.46520057 -0.10232825 -1.6028374 0.4218766 -0.0519501 -0.059700355 0.012878312 0.16110858 0.016257597 -0.39545098 -0.24359635 -0.59460497 -0.18326445 1.0791194 -0.277073 -0.4452 0.27695614 0.13280462 -0.5830713 -0.40691724 -0.2494429 0.4215353 -0.14599524 -0.020006148 0.40775082 -0.51703805 0.24845637 -0.0955356 0.37601388 0.025000356 0.9126108 -0.7643037 0.21692932 -0.6203918 -0.13949737 0.10679521 -0.2844901 0.019803554 0.17620893 -0.89313895 -1.0972327 0.19968244 0.78272516 -0.123701826 0.020982733 -0.68271285 -0.53231233 0.074307695 0.21996541 0.56268233 0.8455932 0.64357215 -0.3944778 -0.5028237 -0.18723804 -0.6239067 -0.08753536 0.41746473 -0.46922627 -0.35829356 -0.22492355 1.2180758
175 0.44180527 -0.7614456 0.123813465 -0.1989674 -0.7755197 0.71154404 -0.08556974 0.58620465 -0.6027627 0.47359604 0.9192826 0.007331339 0.70226896 -0.060178634 0.37071067 0.6739554 -0.28131232 -0.2769482 0.40196684 -0.2177573 0.43578035 -0.74104375 0.039973382 0.30592376 -0.46854427 -0.4004674 0.96390957 -0.6395257 -0.07100499 -0.36894625 -0.72716194 -0.6526083 0.7933436 0.064340025 -0.010699952 -0.2562827 0.5800221 -0.8190861 0.094358176 0.39812982 0.14617513 0.4168271 -0.56092423 0.42252666 0.7823096 -0.54665506 0.01932824 0.614172 -0.20021573 0.21379988 -0.46468103 1.1008074 0.37521315 0.27597448 -1.0066643 -0.85585314 -0.38744077 -0.17432013 -0.4236489 0.38900664 0.36862564 0.5954256 0.45262086 0.8792139
128 0.48989728 -0.4557206 0.2629358 0.2708042 -1.0862248 0.372257 0.08854149 0.34388408 -0.76137984 0.8195243 0.22414829 0.49171638 -0.5012049 -0.24580671 0.26950616 -0.28521854 -0.0022718299 -0.28662932 0.43691972 -0.21527027 -0.3227371 -1.3613836 -0.19079947 -0.13932724 -0.2221448 -0.59053046 0.9924151 0.014453662 0.51060313 -0.3721702 -0.3613571 0.023318684 1.755162 -0.10606793 -0.048007507 -0.3568722 0.22297809 0.04556501 -0.9316911 -0.21321005 -0.83714527 0.72889763 -0.5186691 0.25553906 0.094155975 0.2103996 0.026563933 -0.561365 -0.55329746 0.4689064 0.21159661 -0.035008222 0.22595525 -0.5709002 -0.5149268 -0.73150575 -0.20121567 -0.2035976 0.34700638 0.10750617 -0.016938118 -0.6658976 0.15578666 0.16327043
324 -0.15036027 0.00321313 0.10483741 -0.49475995 -0.32259652 -0.4218815 0.13016856 0.69076693 -0.023871413 -0.03772175 -0.17486732 -0.18313783 -0.38300335 -0.19632351 1.217635 0.47601074 0.14600372 0.26974013 1.0910983 -0.22769032 0.0042873 -0.958271 -0.650124 0.5953881 -0.7075221 -0.51669323 0.30403534 -1.2348362 0.9100878 -0.04666285 -0.17098239 -0.47036305 1.1644342 0.3407538 -0.17380792 0.08725683 0.42029768 -0.31697488 0.21927458 0.10832252 -0.32727933 -0.19198214 -0.98781335 -0.11641996 0.89039433 -0.70152795 0.34382853 -0.15649979 -0.110279 -0.00054129306 0.23159572 0.053716186 0.31157026 0.18182419 -0.75444496 -0.22299549 0.38907236 -0.018162346 0.50152194 0.6062438 0.31455722 -0.6716851 -0.24895845 0.8947447
62 0.09701571 -0.5477588 0.2369386 -0.1516568 -0.36658767 0.37466955 -0.5956796 0.5348356 -0.7442783 -0.22176236 -0.67216676 0.13087682 0.117412336 -1.2118021 0.09297489 0.40419126 0.0026166202 0.5011273 0.1603891 -0.0033011644 -0.7929446 -0.90721965 -0.2954594 0.89103514 -0.07190051 -0.748454 -0.09773409 -0.5248199 -0.39691022 -0.71934855 -0.4730144 -0.87489194 0.83220786 0.5953002 0.7433179 -0.6788618 -0.116339795 -0.29998925 0.012207529 0.061007645 -0.5078338 0.49563232 -0.9193123 -0.45661762 0.40057752 -0.111247554 -0.032565355 -0.17391397 -0.20168307 0.6215213 -0.16157931 0.89603555 0.028384652 -0.05082843 -0.095554106 -0.30876124 -0.30003595 -0.3375771 0.3256868 -0.45486656 -0.4072339 -0.45544246 0.44808507 1.0752994
439 0.5932578 -0.54108965 0.4483501 0.39594546 -1.13913 0.42535192 0.30832782 0.5331126 -0.6473141 0.9219697 0.29429084 0.23159482 -0.381254 -0.21111412 -0.072674274 -0.36037344 -0.19044685 -0.34781584 0.55071807 -0.36838257 -0.06737916 -1.4363314 -0.2581642 -0.15231797 -0.29909852 -0.6965986 0.93142974 0.07630058 0.35005882 -0.163572 -0.15425862 0.127798 1.5604012 -0.033145417 -0.07754835 -0.48064607 0.21174414 -0.028619975 -0.51859504 -0.40026104 -0.8961498 0.60923266 -0.9911538 0.09688753 0.23575708 0.38178962 -0.028654283 -0.6253469 -0.51662 0.20785959 0.29421934 0.027823374 0.22887251 -0.3729614 -0.34438136 -0.5677837 -0.13020414 0.17502235 0.46695155 0.10051567 0.2373447 -0.65016925 0.313627 0.04883741
408 0.4400963 0.36584035 0.2852567 -0.15206383 -0.6040447 0.59809464 0.49420056 0.33118933 -0.097820744 -0.23356009 0.15567836 -0.24346003 -0.033580087 -0.6175295 0.072782524 0.79954 -0.05159224 -0.06626725 -0.2233298 1.2580477 0.30754188 -0.54763323 -0.0062148026 0.029215751 0.35639074 -1.2531447 0.36993998 0.1763502 0.24747242 0.26612318 -0.84108317 -0.18984762 1.3178036 -0.076557934 0.2612041 -0.13868001 1.2307462 0.041457884 -0.86535835 0.37968805 -1.0225297 -0.053356886 -1.4892746 -0.11975365 0.3253488 0.09822678 -0.11938067 0.69204754 0.05459655 0.42963415 0.4104226 0.5080218 -0.059743717 0.42358917 0.096059576 -0.435742 -0.14302307 0.102404036 -0.5609977 0.29790926 -0.33417282 -0.3246236 0.083102085 0.85041744
9 0.75752467 -0.4385974 0.45147887 0.10092695 -1.1879052 0.69359916 0.19435845 0.5431495 -0.8501847 0.8400657 0.1006546 -0.122852065 -0.2985118 -0.27403796 0.3462842 -0.24343207 -0.081009835 -0.34196064 0.4229687 -0.3131053 -0.15226525 -1.1581428 -0.2321718 -0.17306386 -0.4794352 -0.6846507 1.0262963 0.0359758 0.1779557 -0.36334944 -0.59886837 0.044956602 1.526799 -0.25278684 -0.3085506 -0.31742847 0.32848382 0.08958571 -0.50677186 -0.4319313 -0.64161193 0.7008898 -0.83731645 -0.045270637 0.46205994 0.5351783 0.17043458 -0.50806665 -0.57182735 0.28646314 0.23817663 -0.2717409 0.28050828 -0.43888205 -0.17579211 -0.5634654 -0.26858532 0.10051146 0.58235645 0.06613983 0.18060829 -0.6229692 0.23523873 -0.010342622
139 0.59904695 -0.31094566 0.60612833 0.5492832 -0.94059235 0.7541193 0.16475433 0.7308257 -0.7169957 0.78766817 0.26705354 0.22971956 -0.06940864 -0.2622432 0.55422103 -0.11517368 -0.1044363 -0.40623754 0.5539516 -0.46905062 -0.18508834 -1.0063269 -0.6487573 -0.044403777 -0.25897446 -0.7780173 1.0049285 0.18159585 0.15312944 -0.14107184 -0.41349652 0.17642622 1.4882399 -0.21093582 -0.0749988 -0.42708212 0.34823993 0.18845421 -0.3544196 -0.47939387 -0.6593751 0.6372154 -0.82465017 -0.14280741 0.5200235 0.6675088 0.3303075 -0.71634865 -0.5050848 0.51594746 0.341412 -0.02389322 0.0995725 -0.29974025 -0.2140949 -0.74169666 -0.1728207 0.3570584 0.55417556 -0.07570154 0.15341051 -0.6738851 0.0041826637 0.11813018
434 0.51868045 -0.34169585 0.2760396 0.1195024 -1.1266285 0.42426774 0.034280736 0.07919326 -0.4730087 0.60185385 0.50510544 0.4514068 -0.33219662 -0.044062767 -0.006749315 -0.28473562 -0.13058615 -0.33401623 0.52443546 -0.25850418 -0.4034786 -1.45117 0.046007756 -0.12658548 -0.3526863 -0.64790773 0.81757265 0.310738 0.5910169 -0.19253315 -0.35436326 -0.12840956 1.9171773 0.2636491 -0.20743695 -0.35292488 0.1490691 -0.2320709 -0.5836229 -0.09750156 -0.7451331 0.4303125 -0.7445892 0.02402089 0.16289516 0.26927456 -0.073343545 -0.54793805 -0.75026184 0.72961473 0.29792663 -0.02275974 0.28997707 -0.5882526 -0.57028544 -0.4688978 -0.21845976 -0.2696997 0.38261908 0.15105437 0.16161993 -0.79102653 0.47390288 0.16039115
469 0.5180256 0.14055517 -0.13241301 -0.33837324 -0.6522388 0.59699327 0.01676946 0.3278076 0.0096730115 0.06838874 0.36483163 -0.22364649 -0.28542858 -0.45714435 0.69296694 0.27600238 -1.0078528 -0.48733738 -0.15122959 -0.5648397 -0.038651384 -0.31374076 -0.2257288 0.8196575 -0.31787917 -0.32804254 0.2956151 -0.04232985 0.6928164 0.15078247 -0.18067665 -0.30598992 1.2852038 0.9313537 0.12847081 0.080878586 0.45251992 1.1289289 -0.6746253 -0.13347183 0.19179283 0.32509595 -0.68808115 0.9770219 0.1467363 -0.08390947 0.7048039 -0.048202693 -0.45100826 0.1269092 0.7922538 -0.098601855 -0.08019509 0.96544266 -0.44134277 -0.56330025 -0.48885426 0.08574816 -0.27298948 0.7279183 0.34019554 -0.0061078197 0.49007756 1.0384138
209 0.8462165 0.14952967 -0.10241861 0.9660168 0.076588094 0.33940548 0.1619256 0.340194 -0.3132055 -0.35139006 -0.34344405 -0.20342167 0.027088238 -0.93430346 0.9008184 0.22739926 -0.62621623 -0.4430324 0.81503385 0.5448957 -0.5094407 0.047331695 0.073751435 0.8440359 -0.26121005 0.04923272 0.07248648 -0.85526645 -0.12581666 -0.082136795 -0.44869855 -0.042398993 0.49015847 -0.16216268 0.38828197 -0.5369872 0.7844204 0.52436566 0.057238758 -0.60657734 0.16505519 0.21888572 -1.7682669 0.07079842 0.73830485 -0.25294816 0.65981674 0.5151089 0.097129 0.46450564 -0.76461273 0.949361 -0.2143522 0.8360201 -0.006308396 -0.09373577 -0.38442048 0.07360013 -0.08837476 0.35678458 0.43417343 -0.06750849 -0.42196876 0.6690954
451 0.40134656 -0.12592521 0.32710645 -0.8258641 -0.92308104 -0.06270237 0.4079564 0.34851164 -0.4120644 -0.16494745 0.043995824 0.44232896 -0.9395524 -0.29990736 1.4348907 -0.25443447 0.12576851 0.18117882 0.90847903 0.16543017 -0.050293118 -1.1186483 -0.22651763 0.40810314 0.07685423 0.016647516 0.69872755 -0.92914253 0.34033528 0.64875287 0.078363426 -0.4667207 0.3098739 0.6285074 0.059556533 -0.1370532 0.66295004 0.016207358 -0.23468938 0.20670015 -0.41321364 0.08571886 -0.8627823 -0.5104892 0.65189826 -0.65328974 0.2755867 -0.040022016 0.17850722 0.23801053 -0.36928493 0.16902135 0.41471502 0.74594694 -0.50528234 -0.5574173 0.2327029 -0.34605306 0.26883325 0.23269702 0.18154868 -0.5770936 -0.06295356 0.89043915
455 -0.009754587 -0.138827 0.3972477 -0.7123138 -0.6754275 -0.2260669 0.50186676 0.49065977 -0.22869916 -0.090488255 0.1326985 -0.16528802 -0.5134056 -0.45946762 1.477976 0.11265036 0.21548831 0.3828388 1.067272 0.10964562 0.1908191 -1.223682 0.027208427 0.48626992 -0.19335347 -0.42244592 0.41653144 -0.91123116 0.5903137 0.30670238 -0.02645989 -0.52686924 0.5468002 0.65374166 0.05794154 0.1159156 0.70274895 0.0584296 -0.13725434 -0.030684423 -0.6297989 -0.15583627 -1.0224406 -0.45869702 0.8804448 -0.7423971 -0.06799985 -0.33677122 -0.11140906 0.2455586 0.18154708 0.059831202 0.27760872 0.67045456 -0.3287382 -0.24839003 0.3337891 -0.010551863 0.2892041 0.45477417 0.36782667 -0.4901694 -0.23506407 1.0131139
481 0.26154846 -0.7285956 0.20205902 0.055308692 -0.6995486 0.7779245 -0.033250798 0.6979991 -0.6856258 0.55643374 0.9315078 0.28678602 0.72195685 0.045982543 0.37872258 0.94419956 -0.3690674 -0.34797978 0.23475522 -0.2457415 0.45305368 -0.64788854 0.076826006 0.31662226 -0.31940463 -0.594537 0.78147775 -0.6853354 -0.10287943 -0.23722392 -0.5633926 -0.51019293 0.5851709 0.1944425 0.2471378 -0.07654881 0.46251184 -0.54343426 0.09761902 0.34001127 -0.04227584 0.46755126 -0.7139175 0.45503777 0.9524694 -0.5248778 0.016784644 0.421926 -0.3393908 0.376386 -0.47973114 0.9531361 0.33956113 0.16951282 -0.8810028 -0.83123624 -0.13310614 -0.2833548 -0.57111216 0.42206028 0.5866921 0.48358402 0.34756464 0.8197103
120 0.6354787 -0.397642 0.47701758 0.0042451434 -1.5568397 0.2967558 0.11431978 -0.26762828 -0.1576507 0.06725091 -0.0495303 -0.16834718 -0.1467231 -0.18808421 -0.027535733 1.2801876 -0.4003043 -0.42644536 0.2944883 0.043339696 -0.4173095 -0.42777228 -0.19129321 0.5465914 -0.03651081 -0.54495025 0.3916706 -0.7285232 -0.06840471 -0.18231572 0.38073578 0.044875536 0.9008045 -0.71767515 0.44328284 -0.635202 -0.2562196 0.16219276 -0.4834696 -0.16427226 0.028164342 -0.8689239 -0.98873484 0.21175523 0.6877657 -0.108952604 0.18925008 -0.69837296 -0.5335823 0.17956357 0.14290136 0.46246758 0.9015545 0.71930456 -0.07546518 -0.35321364 -0.15914878 -0.5018907 -0.2445117 0.42173216 -0.23047352 -0.43367168 -0.32736936 1.1125114
112 0.4528813 -0.08567934 -0.30619898 -0.3303453 -0.9358297 0.3058807 0.0802639 0.3327756 0.2594299 0.2848275 0.19306147 -0.14712135 -0.5836831 -0.25933224 0.49857265 -0.019065514 -0.71960884 -0.5183157 0.09724934 -0.6718924 0.20274884 -0.37701756 -0.36078307 0.87095183 -0.13348626 -0.29525036 0.3074832 0.10278276 0.7179869 0.17910734 -0.31626162 -0.2264917 1.1748917 0.77258015 0.24717797 0.13408531 0.7268956 1.035686 -0.3873769 -0.33145645 0.35270458 0.14975935 -0.8723026 1.0246698 0.2048533 -0.05195218 0.7666642 0.11895061 -0.263958 0.1821225 0.7215547 -0.13488172 0.16430153 0.88570285 -0.54897654 -0.63315415 -0.66270304 0.16363972 -0.41716266 0.6578282 0.47222263 0.17048182 0.54856026 1.0057471
142 0.19921494 0.08646707 0.39854932 -0.70189744 -0.56237423 -0.19483188 0.32233277 0.501651 -0.30047777 -0.15566733 -0.28695187 -0.12655431 -0.25560543 -0.36429176 1.4317203 0.22927555 0.07614546 0.3287605 0.8571515 0.08463186 -0.10322253 -1.0974345 -0.13734858 0.3848857 -0.2537322 -0.3694453 0.49236763 -1.1627758 1.0721744 0.15099108 -0.24793674 -0.76576614 0.6371919 0.61715573 -0.01894549 -0.0357499 0.6567813 -0.20339756 -0.030126538 0.01875726 -0.7220029 -0.13061246 -0.9327637 -0.27441427 0.92003524 -0.7349563 0.12645581 -0.31498474 -0.106316425 -0.03493697 -0.06310753 -0.1730054 0.2105249 0.63111544 -0.42775452 -0.21174274 0.26647165 0.027428994 0.24247456 0.44984236 0.4800131 -0.6519269 -0.32757047 0.9748818
242 0.47991693 -0.023758033 -0.2764501 -0.517153 -0.60652053 0.5689782 0.1378075 0.28250125 -0.06871459 0.0646599 0.40716204 -0.120200194 -0.3625456 -0.17315729 0.42324325 0.19224359 -1.053703 -0.46934223 0.092579685 -0.56438535 0.09218777 -0.23734646 -0.22907388 0.8826687 -0.31625932 -0.24795008 0.48459214 -0.09558503 0.6873047 0.05554756 -0.07375412 -0.039827608 1.3967965 0.58322114 0.12078706 0.14024821 0.6703874 0.9572012 -0.918568 -0.34846544 0.054635607 0.25587636 -0.84362817 1.0734919 0.3563965 -0.1637237 0.656295 0.24347876 -0.18332897 -0.08936321 0.6425397 -0.22088158 0.11623768 1.0825098 -0.57945013 -0.35348913 -0.23510645 0.26089364 -0.38049665 0.5212494 0.3285193 -0.1520703 0.7045389 0.9392509
202 0.14202017 -0.13271049 0.23271441 -0.5704687 -0.55966794 -0.55541915 0.32967383 0.6943009 -0.29700035 0.054612808 -0.26674408 -0.42921108 -0.52922523 -0.24499182 1.0368279 0.47985524 0.30809936 0.09748594 0.98383933 -0.32853076 -0.04909263 -1.1328791 -0.3104624 0.5527881 -0.48133445 -0.5880771 0.2242926 -1.2642132 1.0681844 -0.095595635 -0.3093935 -0.54726774 0.7346166 0.58647543 -0.18979801 0.22111851 0.48998946 -0.0055055153 0.08879471 0.061970953 -0.43506217 -0.18648614 -1.1863902 -0.2311986 0.97680074 -0.74442923 0.22121479 -0.23330955 -0.082141906 -0.12855065 -0.10774884 0.041433726 0.22804616 0.34276813 -0.52575624 -0.08913653 0.43393612 -0.011277791 0.22158228 0.5182926 0.32117653 -0.6469756 -0.18228105 0.74483645
252 0.29038948 -0.104325 0.2006488 -0.40363726 -0.9513068 -0.006221906 0.38990566 0.4643231 -0.58065325 -0.27372727 0.1261845 0.26408657 -0.80379546 -0.17600736 1.2853278 -0.19450594 0.22692022 -0.062160604 0.63836855 0.15567385 -0.14876406 -1.2425305 0.036425885 0.35123432 -0.13412052 0.2310306 0.54063886 -0.97182804 0.33558697 1.0466721 0.10121703 -0.5248735 0.18508035 0.7782688 0.32492647 -0.3163401 0.6574626 -0.0454911 -0.53211886 0.14139673 -0.6107986 0.025873372 -1.02485 -0.2766605 0.56881535 -0.58867705 0.100477174 -0.18213451 0.2481799 0.27018392 -0.4679452 0.13610595 0.39496645 0.6563724 -0.16785496 -0.47544205 0.10465704 -0.48325545 0.15283756 0.26470494 0.42548057 -0.73987067 0.028345285 0.9636933
192 0.7172426 -0.35622647 0.6389494 0.5611281 -1.0740203 0.44549894 0.12560347 0.9883795 -0.8093816 0.53439397 0.21955541 -0.0888694 -0.102163106 -0.28404424 0.44609302 -0.38157785 0.09707342 -0.5035601 0.5786625 -0.25829297 -0.0137228165 -0.9957649 -0.5088778 -0.06594207 -0.23884067 -0.7876146 1.1227322 0.2135745 0.07485688 -0.32487857 -0.33133054 0.16313384 1.6852127 -0.08781415 -0.033780828 -0.4823586 0.39313057 0.112707734 -0.28232503 -0.7772978 -0.2577135 0.5266517 -0.7891157 -0.39679864 0.4056239 0.6208047 0.48140648 -0.27427837 -0.5242363 0.53396535 0.26857042 -0.22081669 0.25095668 0.01338013 -0.3595452 -0.71616423 -0.15536185 0.22176175 0.56257427 -0.14069961 0.04571291 -0.39626333 -0.06277714 0.054539923
266 0.19197449 -0.083358526 0.54972243 -0.63124186 -0.6367834 -0.15911987 0.4934666 0.570689 -0.13930283 -0.26140368 0.11643094 0.002869583 -0.4721771 -0.37176776 1.3439134 0.07900668 0.028553683 0.19784322 0.995005 -0.020391595 0.05082543 -1.1602062 -0.14615254 0.328384 -0.101713836 -0.2676593 0.7106592 -0.743309 0.6228593 0.5263234 -0.06381255 -0.7033437 0.35494664 0.80437684 0.10318769 0.018301202 0.4738355 -0.03442262 0.083481275 0.20561098 -0.7448794 -0.12571102 -1.0515554 -0.38108057 0.7478067 -0.5072623 0.27322933 -0.22742847 0.16534987 0.111772366 -0.1619696 -0.041313462 0.21450965 0.7449155 -0.44661105 -0.45642176 0.3333341 -0.2156222 0.3643053 0.27168706 0.33557636 -0.68525636 -0.24192612 1.1634012
486 0.19278087 -0.12362447 0.29522952 -0.8621795 -0.912142 0.0012486579 0.5234317 0.40833873 -0.37850523 -0.1709666 -0.03511106 0.061703444 -0.65470064 -0.21911687 1.4913626 -0.044335674 0.15918426 0.33364606 0.9046963 0.26407596 0.041053087 -1.2176646 -0.00097404106 0.22448751 -0.2788479 -0.2743167 0.5180887 -0.795694 0.24900389 0.4981221 -0.052809168 -0.47488916 0.52726924 0.81399554 0.11528232 -0.196996 0.6210107 0.00433848 -0.16850606 0.2192893 -0.47402692 -0.045157306 -0.95842516 -0.35111558 0.66961735 -0.5849458 0.32778978 -0.0889079 0.21779236 0.21684846 -0.2091611 -0.02725253 0.4250349 0.6493473 -0.2230873 -0.18292631 0.23146757 -0.4664972 0.21495204 0.3253352 0.7108466 -0.6322789 -0.19432415 1.053287
88 0.14360549 -0.07435632 -0.35809433 -0.77010924 -0.3362368 0.06361274 -0.04425925 0.7891776 -0.8900269 -0.16543128 0.21993639 0.25390667 -0.3612353 -0.9907967 0.5906157 0.6150169 -0.95694315 -0.6165787 0.31416416 -0.9125007 0.43061754 0.08030467 0.014284661 0.78269184 -0.07663703 -0.5345856 0.327397 0.060352307 0.15568829 -0.08494997 -0.1128292 0.06417413 1.6571714 0.52046907 0.014285902 -0.316584 0.16465825 0.32089925 -1.0673908 0.16866788 -0.116857156 0.50290173 -0.7358655 0.91013247 0.5727037 -0.5827354 0.6018431 -0.11232202 -0.3443253 -0.07920311 0.33453146 0.090861455 0.31848934 1.114047 0.12515819 -0.5373061 0.080701135 0.027472703 -0.14909647 -0.27059007 0.39022824 -0.6264243 0.842596 0.84028244
317 0.57822305 0.39658347 -0.067989044 0.83605283 0.08634896 0.36443448 0.12712987 0.47839922 -0.44300988 -0.05494761 -0.21367122 -0.40462953 0.19506107 -0.87024397 0.95826703 0.23384199 -0.70429826 -0.6895044 1.0640962 0.39399698 -0.49201143 0.19719256 0.28411534 0.9361615 -0.062304642 0.04497491 0.016221054 -0.9164443 -0.3260961 -0.16889654 -0.49477947 -0.14466992 0.88750833 -0.098864324 0.16626462 -0.49312383 0.6638044 0.28820455 0.057399288 -0.56864184 0.10435949 0.11726546 -1.5525723 0.22359799 0.5000709 -0.03446526 0.5814272 0.5759069 0.04420348 0.33139175 -0.7704285 0.7965407 -0.04898405 0.8461941 0.36348 -0.343993 -0.12932855 -0.16905084 -0.0064707524 0.39157984 0.57525134 -0.08045222 -0.2812462 0.66459525
313 0.105823666 -0.45751587 0.00464541 -0.24924326 -0.4066181 0.5088559 -0.2538258 0.5245176 -0.6678371 -0.18492375 -0.67202514 0.046446063 -0.18228735 -1.2399846 -0.121242575 0.10301653 0.18333375 0.4909821 0.15830055 0.14178835 -0.44961736 -1.0321723 -0.35614368 1.0199254 -0.18270391 -0.6848956 0.079826705 -0.6540724 -0.62223715 -0.9219127 -0.4126579 -0.61930394 0.79279804 0.61555016 0.6887375 -0.90950334 0.03378605 -0.12505016 0.097094506 0.002984091 -0.35427788 0.5015933 -1.1460043 -0.23093314 0.43414864 -0.044640645 -0.27193597 -0.0654543 0.13059355 0.38503292 0.06135012 0.8410354 0.2112349 -0.2974223 -0.1834737 -0.21391997 -0.32989383 -0.14288107 0.23434669 -0.28533342 -0.30258495 -0.33318368 0.64482546 1.1347965
473 0.543973 0.29024273 -0.18413746 1.0685444 -0.06841549 0.13946487 -0.07605098 0.54742175 -0.5017889 0.09845356 -0.10309407 -0.53208506 -0.1673138 -0.9957439 0.5786349 -0.13293853 -0.39157715 -0.8170497 0.876624 0.3737647 -0.2877438 -0.025878487 0.36176625 0.9547371 -0.30113134 0.13945414 0.12156682 -0.7179591 -0.34186956 -0.123041146 -0.4901256 -0.19695924 0.9748326 -0.1747569 0.2466838 -0.29799277 0.62456083 0.28090623 0.07393128 -0.7266594 0.1408196 0.20540765 -1.6204051 -0.15741903 0.5614407 -0.04429823 0.56256074 0.65136683 -0.17557439 0.2751183 -0.755518 0.655243 -0.23951447 0.86981726 0.06247245 -0.24189751 -0.10872247 -0.26091164 0.1202576 0.5966646 0.3706216 0.09967547 -0.46677455 0.6678789
8 0.42729378 -0.057037823 -0.4030099 -0.46913034 -0.6056518 0.25383246 -0.09918692 0.41857982 -0.46881628 -0.23538181 0.30813614 -0.088704005 -0.44009864 -0.25351703 0.40559664 0.27797696 -0.9414902 -0.57420415 0.08726707 -0.6603434 0.14254712 -0.14738566 -0.08809739 0.96087176 -0.331469 -0.31459442 0.40783796 -0.040578455 0.5382437 -0.040703457 -0.07216463 -0.37733197 1.4440823 0.75847423 0.1484005 -0.040120445 0.47779357 0.93119246 -0.9129785 -0.2694305 0.0051755058 0.26862186 -0.9611076 0.762149 0.15685984 -0.1852394 0.6597986 0.0033239147 -0.28747943 -0.1296832 0.8266621 0.11664628 0.017899193 1.3103212 -0.7052574 -0.5285344 -0.37965938 0.10573719 -0.20425075 0.44030982 0.068883665 -0.07096339 0.7350678 0.6977081
177 0.6557845 0.7252182 -0.033887062 0.27275267 -0.2946042 -0.34293136 0.27633953 -0.14573167 -0.53383774 0.23119646 -0.51683867 0.08922703 -0.12719426 -0.5840676 -0.17672706 1.0089334 -0.38840115 -0.80473787 -0.57963663 -0.2917362 -0.14442499 -0.51917034 -1.0984172 0.4261202 0.18768457 -1.0636083 -0.10959591 -0.49412125 0.580976 0.38500315 -0.097076826 -0.24295764 1.1900141 -0.14325011 0.38436335 -0.57749987 1.1158601 -0.617678 -0.10064345 0.08483528 -0.31537354 0.48555475 -1.1452441 0.00046702617 0.40536997 -0.22912155 0.79679334 0.7519114 -0.5918904 -0.06953051 -0.18343335 0.34964395 0.5932103 -0.20413733 -0.82814646 -0.49075127 -0.4810225 -0.087540045 0.07408014 0.09173934 -0.013974293 -0.26929662 0.26087996 0.26944944
358 0.3567943 -0.6012091 -0.15744308 -0.47864205 -0.83311385 -0.32243618 -0.07927132 -0.48161343 0.31257364 -0.027928386 -0.1002695 0.61232054 -0.406311 -0.5365082 -0.3055825 0.2509255 -0.6806012 -0.6190535 0.73898256 -0.031796373 -0.5859602 -1.0520837 0.69258046 0.17073865 0.042257972 -0.3704799 1.0084527 -0.43130293 0.19543946 0.105301164 -0.76149976 -0.16478153 1.4625499 0.15104984 -0.23650256 -0.34321633 0.19343212 0.25792888 -0.090856835 0.6114873 -0.6190077 0.53027207 -0.9020364 0.58855784 0.4571285 -0.7987078 0.034275405 0.123082854 -0.5180811 0.55007654 0.085836075 0.030444082 -0.14346595 -0.6644159 -0.6360115 -0.03798428 -0.35986933 -0.6167523 0.020895194 0.4307648 -0.27845037 -0.63463604 0.4069087 0.5606598
460 0.06866403 0.15738365 0.14209828 -0.57704705 -0.47041693 -0.19734797 0.51313734 0.68478394 -0.045318495 -0.10038226 -0.057699602 -0.12980998 -0.38458478 -0.34826994 1.2917831 0.53978246 0.50313544 0.17508559 1.0553446 -0.16205767 0.12362975 -1.0143026 -0.29206082 0.5573165 -0.42367607 -0.41315752 0.47483408 -1.1793935 0.9024569 -0.027734082 -0.20391579 -0.47815898 0.5821932 0.39419344 -0.1430121 0.14322259 0.6336549 -0.0699744 -0.14445749 0.24592495 -0.6973085 -0.03616093 -1.0438046 -0.28933498 0.92945546 -0.6616128 0.22372821 -0.4714068 -0.10716432 -0.024038527 0.10483157 0.091320805 0.15162423 0.39520067 -0.41982368 -0.20397991 0.28012475 -0.13220401 0.5163557 0.5590938 0.4340029 -0.7562738 -0.13855866 1.1175435
66 0.34503824 -0.0033807112 -0.3070907 -0.6483752 -0.42616445 0.423508 -0.081302986 0.35069427 -0.602783 -0.34170228 0.32690445 0.23493466 -0.3613447 -0.38613153 0.6421494 0.47143313 -0.926113 -0.46824554 0.28747976 -0.8938487 0.059274487 -0.08237669 -0.26204893 1.0453771 -0.09445704 -0.24594697 0.48579898 0.22075899 0.7405017 -0.056905176 -0.19697556 0.16077045 1.5061507 0.52907395 0.19925866 0.0517674 0.4032916 0.7761335 -0.95120174 -0.08739066 0.06923968 0.32180345 -0.7958897 0.93171835 0.28600234 -0.13813978 0.50570345 0.11200284 -0.23335184 0.01331623 0.6034573 0.17452507 -0.10346272 1.2360163 -0.5635655 -0.52786595 -0.056651194 0.16350003 -0.20574439 0.4129213 0.09474506 -0.18382384 0.683609 0.9292705
118 0.57172614 -0.4469201 0.65628505 -0.21275254 -1.4162656 0.24418716 0.06390128 -0.10706525 -0.043832544 0.094735056 -0.09658067 -0.08865206 -0.11657861 -0.26201653 -0.051827524 1.2560425 -0.41182292 -0.32578942 0.2676276 -0.031211019 -0.7300357 -0.3155453 0.060746994 0.67135257 -0.22674645 -0.20240493 0.5696273 -0.31799528 0.3018332 -0.23754516 0.15692072 -0.009697578 0.88317764 -0.9088469 0.54736227 -0.39614752 -0.039651882 -0.0029276037 -0.52762836 -0.2413856 -0.13935097 -0.85837376 -0.92001945 0.15928543 0.69329286 -0.14844802 0.48475963 -0.6807459 -0.6629708 0.14513144 -0.047795765 0.62070125 0.7895763 0.7403843 -0.1160611 -0.45206735 -0.056689613 -0.45850068 -0.10218312 0.16860338 -0.45175856 -0.3288287 -0.4583286 1.2140374
432 0.4434017 0.790312 -0.1447414 -0.019206079 -0.5078223 -0.1725141 0.46738365 -0.13067079 -0.2581726 0.28577036 -0.43955028 -0.06518896 -0.15270312 -0.54779476 -0.13812478 0.994396 -0.22573645 -0.49602216 -0.38210085 -0.06417121 -0.12088384 -0.22778393 -0.79120624 0.44706926 0.11588347 -0.8754264 -0.13407014 -0.48339438 0.5276529 0.21015029 -0.28805867 -0.1364246 1.4067758 -0.4303285 0.5829827 -0.5495637 1.1121151 -0.87481046 -0.24903391 0.14009827 -0.26666936 0.8510205 -1.1094368 0.18732443 0.3181142 -0.31336036 0.5781462 0.8877706 -0.42154735 -0.17468902 0.007927441 0.4253174 0.706682 -0.18485817 -0.62370443 -0.5897007 -0.65338147 0.0058108573 0.4384313 0.22059883 0.088812284 -0.39686805 0.1481181 0.36242175
278 0.5790951 -0.039209925 0.18537806 -0.7854961 -1.0783821 0.34967205 0.41949 0.21977744 -0.32373005 -0.17057167 0.07289202 0.53276616 -0.58457905 -0.07690255 1.1963426 -0.42897412 0.15663372 0.009738937 0.710055 -0.06201897 -0.25185543 -1.1984291 0.2447857 0.74945676 -0.055763386 0.34978533 0.49737218 -0.70141155 0.36608666 0.9056218 0.07758121 -0.3398692 0.22910984 0.67625195 0.38511616 -0.13783684 0.6426835 -0.16985786 -0.41720706 0.03969646 -0.71757865 0.12128445 -0.9894405 -0.47113955 0.5568513 -0.45541477 0.050961368 -0.063844234 0.15063573 0.3578027 -0.5067748 0.26561835 0.40900448 0.77996784 -0.06452759 -0.6077628 0.10424106 -0.5047977 0.3112415 0.15908878 0.6083628 -0.6219419 0.107780516 0.95641375
73 0.07479376 -0.83506274 0.029387837 -0.15071782 -0.7367293 0.9014027 0.22053966 0.9109221 -0.63386875 0.8302938 0.7808097 0.22462584 0.8596905 -0.19334637 0.5163091 0.81378514 -0.41142923 -0.2731342 0.19834282 0.05407112 0.29669407 -0.53617036 -0.03767029 0.16321437 -0.06870596 -0.2128687 0.8401706 -0.45507884 0.2036749 -0.39313242 -0.33508587 -0.6813089 0.54235405 0.032451227 0.52972776 0.046553627 0.6315577 -0.66984034 0.23482935 0.22616254 -0.007991951 0.51039773 -1.0355892 0.7231472 0.9275464 -0.6664347 0.105056085 0.33902684 -0.18688047 0.54051137 -0.29969147 0.6296024 0.33429483 0.14602658 -0.9089316 -0.6476122 -0.048969053 -0.46927568 -0.3911732 0.28841588 0.28716847 0.38750094 0.5072078 0.68686783
398 0.27926466 -0.68731576 0.19354014 0.020200891 -0.8045704 0.64364904 -0.0030837345 0.71075267 -0.7310229 0.71823007 0.7207875 0.16857658 0.7473333 -0.10169812 0.5254505 0.6752594 -0.442696 -0.42832455 0.121339224 0.051124547 0.41066068 -0.71309745 0.15042044 0.31410706 -0.035522442 -0.27637088 0.83705395 -0.42622268 0.016890924 -0.3774047 -0.35712 -0.7105156 0.7491457 0.20006964 0.25512433 -0.17031531 0.38397267 -0.69212097 0.41670388 0.3923635 0.12014141 0.32714018 -0.8366327 0.54466814 0.88569975 -0.6552468 -0.10176824 0.35358658 -0.32103133 0.41596574 -0.38146096 0.9307806 0.16527003 0.36906987 -1.1602955 -0.8736877 -0.002140469 -0.110685915 -0.39144522 0.44770348 0.30733988 0.62727016 0.4627705 0.62586075
468 0.80817044 -0.2797483 -0.07746861 0.56187636 -0.5634579 0.42720467 -0.16185057 -0.4144147 -0.58884495 -0.32309502 0.03944233 0.06098921 -0.10382398 -0.32059538 0.24242301 0.11950228 -0.85703313 -1.0464557 -0.56745243 -0.8732048 -0.5929258 -0.711585 -1.0089879 0.9628807 -0.44737533 0.4452947 0.28178304 -0.32324016 -0.21987107 0.34023586 0.27315488 -0.008425072 0.6385698 -0.042319693 0.76141655 -0.16823164 0.5097991 -0.5896976 -0.118880875 -0.41094878 -0.15904766 0.7145992 -0.9340567 0.26519543 0.22905943 -0.45788 0.64683545 0.23719786 -0.3548122 0.5241916 -0.45265046 0.4638891 1.1618708 -0.4334161 -0.1468126 -0.41618323 -0.8217154 -0.29374352 0.12117625 0.17022185 0.14587511 -0.5918766 0.7067212 0.3684337
153 0.5013734 -0.05655882 -0.39249408 -0.056302518 -0.90605295 0.3566812 0.12590252 0.58494115 0.4415453 0.39156425 0.38549516 -0.20347337 -0.55525833 -0.3910255 0.66281986 0.18090528 -0.6239789 -0.74606425 -0.04667584 -0.33235213 -0.0377081 -0.41741678 -0.55137277 0.7237665 -0.17431088 0.11023442 0.1418688 -0.087214656 0.80497223 0.2186296 -0.30553734 -0.19681922 1.0939125 0.9158229 0.0662599 -0.119558 0.87397623 1.1273631 -0.63212675 -0.0221195 0.32380348 0.19616254 -0.8580753 1.0592843 0.28798977 0.001295204 0.55483 -0.03664548 0.025525542 0.30700886 0.7761899 0.02147104 -0.071725175 0.5558291 -0.5907673 -0.58644134 -0.5538224 0.25244868 -0.42289835 0.8450715 0.30688164 0.09345732 0.57861334 0.97117364
